<?xml version="1.0"?>
<MethodSetup Method="DNN::DNN">
  <GeneralInfo>
    <Info name="TMVA Release" value="4.2.1 [262657]"/>
    <Info name="ROOT Release" value="6.07/07 [395015]"/>
    <Info name="Creator" value="testuser"/>
    <Info name="Date" value="Thu Jul  7 12:47:37 2016"/>
    <Info name="Host" value="Darwin Abhinavs-MBP.lan 15.5.0 Darwin Kernel Version 15.5.0: Tue Apr 19 18:36:36 PDT 2016; root:xnu-3248.50.21~8/RELEASE_X86_64 x86_64"/>
    <Info name="Dir" value="/Users/testuser/gsoc-2016/notebooks"/>
    <Info name="Training events" value="3000"/>
    <Info name="TrainingTime" value="4.66756821e+01"/>
    <Info name="AnalysisType" value="Regression"/>
  </GeneralInfo>
  <Options>
    <Option name="V" modified="Yes">True</Option>
    <Option name="VerbosityLevel" modified="No">Verbose</Option>
    <Option name="VarTransform" modified="Yes">G</Option>
    <Option name="H" modified="Yes">False</Option>
    <Option name="CreateMVAPdfs" modified="No">False</Option>
    <Option name="IgnoreNegWeightsInTraining" modified="No">False</Option>
    <Option name="Layout" modified="Yes">TANH|3,LINEAR</Option>
    <Option name="ErrorStrategy" modified="Yes">SUMOFSQUARES</Option>
    <Option name="WeightInitialization" modified="Yes">XAVIERUNIFORM</Option>
    <Option name="TrainingStrategy" modified="Yes">LearningRate=1e-1,Momentum=0.0,Repetitions=1,ConvergenceSteps=300,BatchSize=20,TestRepetitions=15,WeightDecay=0.001,Regularization=NONE,DropConfig=0.0+0.5+0.5+0.5,DropRepetitions=1,Multithreading=True|LearningRate=1e-2,Momentum=0.5,Repetitions=1,ConvergenceSteps=300,BatchSize=30,TestRepetitions=7,WeightDecay=0.001,Regularization=L2,Multithreading=True,DropConfig=0.0+0.1+0.1+0.1,DropRepetitions=1</Option>
    <Option name="SignalWeightsSum" modified="No">1.000000e+03</Option>
    <Option name="BackgroundWeightsSum" modified="No">1.000000e+03</Option>
  </Options>
  <Variables NVar="6">
    <Variable VarIndex="0" Expression="var0" Label="var0" Title="var0" Unit="" Internal="var0" Type="F" Min="8.60176980e-02" Max="9.99503899e+00"/>
    <Variable VarIndex="1" Expression="var1" Label="var1" Title="var1" Unit="" Internal="var1" Type="F" Min="9.94240399e-05" Max="4.99672604e+00"/>
    <Variable VarIndex="2" Expression="var2" Label="var2" Title="var2" Unit="" Internal="var2" Type="F" Min="1.34884948e-02" Max="4.99916363e+00"/>
    <Variable VarIndex="3" Expression="var0-var1" Label="var0-var1" Title="var0-var1" Unit="" Internal="var0_M_var1" Type="F" Min="-4.44536829e+00" Max="9.93654156e+00"/>
    <Variable VarIndex="4" Expression="var0*var2" Label="var0*var2" Title="var0*var2" Unit="" Internal="var0_T_var2" Type="F" Min="2.29883734e-02" Max="4.82199593e+01"/>
    <Variable VarIndex="5" Expression="var1+var2" Label="var1+var2" Title="var1+var2" Unit="" Internal="var1_P_var2" Type="F" Min="2.54965097e-01" Max="9.77704048e+00"/>
  </Variables>
  <Spectators NSpec="0"/>
  <Classes NClass="1">
    <Class Name="Regression" Index="0"/>
  </Classes>
  <Targets NTrgt="6">
    <Target TargetIndex="0" Expression="var0" Label="var0" Title="var0" Unit="" Internal="var0" Type="F" Min="8.60176980e-02" Max="9.99503899e+00"/>
    <Target TargetIndex="1" Expression="var1" Label="var1" Title="var1" Unit="" Internal="var1" Type="F" Min="9.94240399e-05" Max="4.99672604e+00"/>
    <Target TargetIndex="2" Expression="var2" Label="var2" Title="var2" Unit="" Internal="var2" Type="F" Min="1.34884948e-02" Max="4.99916363e+00"/>
    <Target TargetIndex="3" Expression="var0-var1" Label="var0-var1" Title="var0-var1" Unit="" Internal="var0_M_var1" Type="F" Min="-4.44536829e+00" Max="9.93654156e+00"/>
    <Target TargetIndex="4" Expression="var0*var2" Label="var0*var2" Title="var0*var2" Unit="" Internal="var0_T_var2" Type="F" Min="2.29883734e-02" Max="4.82199593e+01"/>
    <Target TargetIndex="5" Expression="var1+var2" Label="var1+var2" Title="var1+var2" Unit="" Internal="var1_P_var2" Type="F" Min="2.54965097e-01" Max="9.77704048e+00"/>
  </Targets>
  <Transformations NTransformations="1">
    <Transform Name="Gauss" FlatOrGauss="Gauss">
      <Selection>
        <Input NInputs="6">
          <Input Type="Variable" Label="var0" Expression="var0"/>
          <Input Type="Variable" Label="var1" Expression="var1"/>
          <Input Type="Variable" Label="var2" Expression="var2"/>
          <Input Type="Variable" Label="var0-var1" Expression="var0-var1"/>
          <Input Type="Variable" Label="var0*var2" Expression="var0*var2"/>
          <Input Type="Variable" Label="var1+var2" Expression="var1+var2"/>
        </Input>
        <Output NOutputs="6">
          <Output Type="Variable" Label="var0" Expression="var0"/>
          <Output Type="Variable" Label="var1" Expression="var1"/>
          <Output Type="Variable" Label="var2" Expression="var2"/>
          <Output Type="Variable" Label="var0-var1" Expression="var0-var1"/>
          <Output Type="Variable" Label="var0*var2" Expression="var0*var2"/>
          <Output Type="Variable" Label="var1+var2" Expression="var1+var2"/>
        </Output>
      </Selection>
      <Variable VarIndex="0">
        <CumulativePDF_cls0>
          <PDF Name="GaussTransform var0 cls0" MinNSmooth="0" MaxNSmooth="0" InterpolMethod="1" KDE_type="0" KDE_iter="1" KDE_border="1" KDE_finefactor="0.0000000000000000e+00">
            <Histogram Name="Cumulative_Var0_cls0_original" NBins="301" XMin="8.5917696356773376e-02" XMax="9.9950389862060547e+00" HasEquidistantBins="0">
              2.41164234e-03 5.40540554e-03 8.71101860e-03 1.20582124e-02 1.53846154e-02 1.87110193e-02 2.20374223e-02 2.53638253e-02 2.86902282e-02 3.20166312e-02 3.53430361e-02 3.86694372e-02 4.19958420e-02 4.53222468e-02 4.86486480e-02 5.19750528e-02 5.53014539e-02 5.86278588e-02 6.19542636e-02 6.52806684e-02 6.86070696e-02 7.19334707e-02 7.52598718e-02 7.85862803e-02 8.19126815e-02 8.52390826e-02 8.85654911e-02 9.18918923e-02 9.52182934e-02 9.85447019e-02 1.01871103e-01 1.05197504e-01 1.08523905e-01 1.11850314e-01 1.15176715e-01 1.18503116e-01 1.21829525e-01 1.25155926e-01 1.28482327e-01 1.31808728e-01 1.35135129e-01 1.38461545e-01 1.41787946e-01 1.45114347e-01 1.48440748e-01 1.51767150e-01 1.55093551e-01 1.58419952e-01 1.61746368e-01 1.65072769e-01 1.68399170e-01 1.71725571e-01 1.75051972e-01 1.78378373e-01 1.81704774e-01 1.85031191e-01 1.88357592e-01 1.91683993e-01 1.95010394e-01 1.98336795e-01 2.01663196e-01 2.04989612e-01 2.08316013e-01 2.11642414e-01 2.14968815e-01 2.18295217e-01 2.21621618e-01 2.24948019e-01 2.28274435e-01 2.31600836e-01 2.34927237e-01 2.38253638e-01 2.41580039e-01 2.44906440e-01 2.48232841e-01 2.51559258e-01 2.54885644e-01 2.58212060e-01 2.61538476e-01 2.64864862e-01 2.68191278e-01 2.71517664e-01 2.74844080e-01 2.78170466e-01 2.81496882e-01 2.84823298e-01 2.88149685e-01 2.91476101e-01 2.94802487e-01 2.98128903e-01 3.01455289e-01 3.04781705e-01 3.08108121e-01 3.11434507e-01 3.14760923e-01 3.18087310e-01 3.21413726e-01 3.24740112e-01 3.28066528e-01 3.31392944e-01 3.34719330e-01 3.38045746e-01 3.41372132e-01 3.44698548e-01 3.48024935e-01 3.51351351e-01 3.54677767e-01 3.58004153e-01 3.61330569e-01 3.64656955e-01 3.67983371e-01 3.71309757e-01 3.74636173e-01 3.77962589e-01 3.81288975e-01 3.84615391e-01 3.87941778e-01 3.91268194e-01 3.94594580e-01 3.97920996e-01 4.01247412e-01 4.04573798e-01 4.07900214e-01 4.11226600e-01 4.14553016e-01 4.17879432e-01 4.21205819e-01 4.24532235e-01 4.27858621e-01 4.31185037e-01 4.34511423e-01 4.37837839e-01 4.41164255e-01 4.44490641e-01 4.47817057e-01 4.51143444e-01 4.54469860e-01 4.57796246e-01 4.61122662e-01 4.64449078e-01 4.67775464e-01 4.71101880e-01 4.74428266e-01 4.77754682e-01 4.81081069e-01 4.84407485e-01 4.87733901e-01 4.91060287e-01 4.94386703e-01 4.97713089e-01 5.01039505e-01 5.04365921e-01 5.07692337e-01 5.11018693e-01 5.14345109e-01 5.17671525e-01 5.20997941e-01 5.24324298e-01 5.27650714e-01 5.30977130e-01 5.34303546e-01 5.37629962e-01 5.40956318e-01 5.44282734e-01 5.47609150e-01 5.50935566e-01 5.54261982e-01 5.57588339e-01 5.60914755e-01 5.64241171e-01 5.67567587e-01 5.70893943e-01 5.74220359e-01 5.77546775e-01 5.80873191e-01 5.84199607e-01 5.87525964e-01 5.90852380e-01 5.94178796e-01 5.97505212e-01 6.00831628e-01 6.04157984e-01 6.07484400e-01 6.10810816e-01 6.14137232e-01 6.17463589e-01 6.20790005e-01 6.24116421e-01 6.27442837e-01 6.30769253e-01 6.34095609e-01 6.37422025e-01 6.40748441e-01 6.44074857e-01 6.47401273e-01 6.50727630e-01 6.54054046e-01 6.57380462e-01 6.60706878e-01 6.64033294e-01 6.67359650e-01 6.70686066e-01 6.74012482e-01 6.77338898e-01 6.80665255e-01 6.83991671e-01 6.87318087e-01 6.90644503e-01 6.93970919e-01 6.97297275e-01 7.00623691e-01 7.03950107e-01 7.07276523e-01 7.10602939e-01 7.13929296e-01 7.17255712e-01 7.20582128e-01 7.23908544e-01 7.27234900e-01 7.30561316e-01 7.33887732e-01 7.37214148e-01 7.40540564e-01 7.43866920e-01 7.47193336e-01 7.50519753e-01 7.53846169e-01 7.57172585e-01 7.60498941e-01 7.63825357e-01 7.67151773e-01 7.70478189e-01 7.73804545e-01 7.77130961e-01 7.80457377e-01 7.83783793e-01 7.87110209e-01 7.90436566e-01 7.93762982e-01 7.97089398e-01 8.00415814e-01 8.03742230e-01 8.07068586e-01 8.10395002e-01 8.13721418e-01 8.17047834e-01 8.20374191e-01 8.23700607e-01 8.27027023e-01 8.30353439e-01 8.33679855e-01 8.37006211e-01 8.40332627e-01 8.43659043e-01 8.46985459e-01 8.50311875e-01 8.53638232e-01 8.56964648e-01 8.60291064e-01 8.63617480e-01 8.66943896e-01 8.70270252e-01 8.73596668e-01 8.76923084e-01 8.80249500e-01 8.83575857e-01 8.86902273e-01 8.90228689e-01 8.93555105e-01 8.96881521e-01 9.00207877e-01 9.03534293e-01 9.06860709e-01 9.10187125e-01 9.13513541e-01 9.16839898e-01 9.20166314e-01 9.23492730e-01 9.26819146e-01 9.30145502e-01 9.33471918e-01 9.36798334e-01 9.40124750e-01 9.43451166e-01 9.46777523e-01 9.50103939e-01 9.53430355e-01 9.56756771e-01 9.60083187e-01 9.63409543e-01 9.66735959e-01 9.70062375e-01 9.73388791e-01 9.76715147e-01 9.80041564e-01 9.83367980e-01 9.86694396e-01 9.90020812e-01 9.93347168e-01 9.96673584e-01 1.00000000e+00 
            </Histogram>
            <HistogramBinning NBins="301">
              8.59176964e-02 8.60176980e-02 2.82158762e-01 3.80567133e-01 4.44362015e-01 5.05517781e-01 5.66197395e-01 6.27534866e-01 6.68858647e-01 7.29154348e-01 7.57815719e-01 7.74232149e-01 8.17582011e-01 8.34358752e-01 8.63338590e-01 8.93272281e-01 9.15853381e-01 9.45051491e-01 9.67026174e-01 9.82767999e-01 1.00056267e+00 1.02984190e+00 1.05157948e+00 1.06353140e+00 1.07511485e+00 1.09351373e+00 1.11152530e+00 1.12513125e+00 1.14319253e+00 1.16009009e+00 1.17919147e+00 1.19676042e+00 1.21228719e+00 1.22149348e+00 1.24417520e+00 1.26183629e+00 1.29007292e+00 1.30236828e+00 1.32191563e+00 1.33902586e+00 1.35188341e+00 1.36551082e+00 1.38783813e+00 1.40070403e+00 1.41146445e+00 1.43477404e+00 1.45255792e+00 1.46311712e+00 1.47831774e+00 1.49457252e+00 1.50881243e+00 1.51994276e+00 1.53109419e+00 1.54403830e+00 1.56390262e+00 1.57829535e+00 1.59093785e+00 1.60250282e+00 1.61268961e+00 1.62514818e+00 1.63609254e+00 1.64802599e+00 1.66625011e+00 1.67310786e+00 1.68849552e+00 1.69644940e+00 1.70435476e+00 1.72346127e+00 1.74240530e+00 1.75505471e+00 1.78109646e+00 1.79135942e+00 1.80629146e+00 1.82147110e+00 1.82997739e+00 1.84738958e+00 1.85783327e+00 1.86759984e+00 1.87952912e+00 1.89495504e+00 1.90569639e+00 1.92396736e+00 1.93191361e+00 1.94713855e+00 1.96113300e+00 1.97152126e+00 1.98040271e+00 1.98571324e+00 1.99975216e+00 2.00844836e+00 2.02191424e+00 2.03132224e+00 2.04016733e+00 2.04991412e+00 2.05867910e+00 2.06839418e+00 2.07917809e+00 2.08690357e+00 2.09633541e+00 2.10812068e+00 2.12652445e+00 2.13559794e+00 2.14931273e+00 2.16956878e+00 2.18111539e+00 2.19218755e+00 2.20719504e+00 2.22114372e+00 2.23607635e+00 2.24377513e+00 2.25845861e+00 2.26920247e+00 2.28169107e+00 2.30031347e+00 2.31471992e+00 2.33023071e+00 2.34153461e+00 2.35683465e+00 2.36765385e+00 2.37277246e+00 2.38643909e+00 2.39972496e+00 2.40607977e+00 2.42279148e+00 2.42877221e+00 2.44115663e+00 2.45575905e+00 2.47033501e+00 2.48389554e+00 2.49161720e+00 2.50736475e+00 2.53287172e+00 2.54623675e+00 2.55316973e+00 2.57180381e+00 2.59022045e+00 2.60085964e+00 2.60783672e+00 2.61522913e+00 2.62478471e+00 2.64147186e+00 2.65596056e+00 2.66989946e+00 2.68134618e+00 2.68987536e+00 2.70096707e+00 2.71915603e+00 2.74001217e+00 2.75235009e+00 2.76354933e+00 2.78285241e+00 2.79671884e+00 2.80525684e+00 2.81779766e+00 2.82964873e+00 2.84250712e+00 2.85371375e+00 2.87504077e+00 2.88967061e+00 2.90022016e+00 2.91457105e+00 2.92899776e+00 2.94750309e+00 2.96570015e+00 2.98192000e+00 2.99308252e+00 3.00302958e+00 3.01441503e+00 3.03068876e+00 3.04164243e+00 3.05628085e+00 3.06583595e+00 3.08015847e+00 3.09315252e+00 3.10253572e+00 3.11565447e+00 3.13068128e+00 3.13974333e+00 3.15258884e+00 3.16788554e+00 3.18170452e+00 3.19433403e+00 3.20290589e+00 3.21972632e+00 3.22994876e+00 3.23863006e+00 3.25988317e+00 3.27322292e+00 3.28483367e+00 3.30105400e+00 3.31672955e+00 3.32838964e+00 3.34251475e+00 3.35119915e+00 3.36622810e+00 3.37964749e+00 3.39402056e+00 3.41283822e+00 3.42781854e+00 3.44718099e+00 3.46249557e+00 3.47753525e+00 3.49691749e+00 3.51365829e+00 3.52599454e+00 3.54909182e+00 3.56507587e+00 3.58183575e+00 3.59238124e+00 3.60708952e+00 3.62447429e+00 3.63836122e+00 3.64946413e+00 3.66785073e+00 3.68630481e+00 3.69606924e+00 3.72545886e+00 3.76361918e+00 3.77268648e+00 3.79380941e+00 3.81300068e+00 3.83567929e+00 3.84776473e+00 3.87108588e+00 3.88466215e+00 3.90014172e+00 3.92291951e+00 3.93540788e+00 3.94877291e+00 3.97783661e+00 4.01279926e+00 4.02844667e+00 4.04613256e+00 4.06384277e+00 4.08904076e+00 4.10281897e+00 4.13815546e+00 4.15042305e+00 4.17255259e+00 4.21073055e+00 4.23389959e+00 4.25498676e+00 4.28274965e+00 4.30121803e+00 4.31963778e+00 4.34146786e+00 4.36700583e+00 4.40127325e+00 4.41957712e+00 4.43163157e+00 4.46392202e+00 4.49460983e+00 4.52772570e+00 4.55870008e+00 4.57979441e+00 4.59950113e+00 4.61737633e+00 4.64187527e+00 4.66488552e+00 4.69852972e+00 4.71899271e+00 4.74675417e+00 4.77976990e+00 4.80208731e+00 4.82632303e+00 4.87984562e+00 4.94119740e+00 4.98394012e+00 5.02850914e+00 5.04774904e+00 5.10075235e+00 5.13796425e+00 5.18724298e+00 5.25423574e+00 5.29961586e+00 5.33979273e+00 5.39645243e+00 5.48961735e+00 5.55326986e+00 5.65942049e+00 5.77224064e+00 5.85642672e+00 5.94015980e+00 6.08392811e+00 6.16745138e+00 6.28526115e+00 6.37914610e+00 6.53635693e+00 6.66606569e+00 6.85872746e+00 6.95335340e+00 7.17501926e+00 7.29078341e+00 7.56031704e+00 7.88686800e+00 8.16235924e+00 8.37905216e+00 8.57989979e+00 8.97639656e+00 9.21810818e+00 9.71518326e+00 9.99503899e+00 
            </HistogramBinning>
          </PDF>
        </CumulativePDF_cls0>
      </Variable>
      <Variable VarIndex="1">
        <CumulativePDF_cls0>
          <PDF Name="GaussTransform var1 cls0" MinNSmooth="0" MaxNSmooth="0" InterpolMethod="1" KDE_type="0" KDE_iter="1" KDE_border="1" KDE_finefactor="0.0000000000000000e+00">
            <Histogram Name="Cumulative_Var1_cls0_original" NBins="301" XMin="-5.7595752878114581e-07" XMax="4.9967260360717773e+00" HasEquidistantBins="0">
              2.41164234e-03 5.40540554e-03 8.71101860e-03 1.20582124e-02 1.53846154e-02 1.87110193e-02 2.20374223e-02 2.53638253e-02 2.86902282e-02 3.20166312e-02 3.53430361e-02 3.86694372e-02 4.19958420e-02 4.53222468e-02 4.86486480e-02 5.19750528e-02 5.53014539e-02 5.86278588e-02 6.19542636e-02 6.52806684e-02 6.86070696e-02 7.19334707e-02 7.52598718e-02 7.85862803e-02 8.19126815e-02 8.52390826e-02 8.85654911e-02 9.18918923e-02 9.52182934e-02 9.85447019e-02 1.01871103e-01 1.05197504e-01 1.08523905e-01 1.11850314e-01 1.15176715e-01 1.18503116e-01 1.21829525e-01 1.25155926e-01 1.28482327e-01 1.31808728e-01 1.35135129e-01 1.38461545e-01 1.41787946e-01 1.45114347e-01 1.48440748e-01 1.51767150e-01 1.55093551e-01 1.58419952e-01 1.61746368e-01 1.65072769e-01 1.68399170e-01 1.71725571e-01 1.75051972e-01 1.78378373e-01 1.81704774e-01 1.85031191e-01 1.88357592e-01 1.91683993e-01 1.95010394e-01 1.98336795e-01 2.01663196e-01 2.04989612e-01 2.08316013e-01 2.11642414e-01 2.14968815e-01 2.18295217e-01 2.21621618e-01 2.24948019e-01 2.28274435e-01 2.31600836e-01 2.34927237e-01 2.38253638e-01 2.41580039e-01 2.44906440e-01 2.48232841e-01 2.51559258e-01 2.54885644e-01 2.58212060e-01 2.61538476e-01 2.64864862e-01 2.68191278e-01 2.71517664e-01 2.74844080e-01 2.78170466e-01 2.81496882e-01 2.84823298e-01 2.88149685e-01 2.91476101e-01 2.94802487e-01 2.98128903e-01 3.01455289e-01 3.04781705e-01 3.08108121e-01 3.11434507e-01 3.14760923e-01 3.18087310e-01 3.21413726e-01 3.24740112e-01 3.28066528e-01 3.31392944e-01 3.34719330e-01 3.38045746e-01 3.41372132e-01 3.44698548e-01 3.48024935e-01 3.51351351e-01 3.54677767e-01 3.58004153e-01 3.61330569e-01 3.64656955e-01 3.67983371e-01 3.71309757e-01 3.74636173e-01 3.77962589e-01 3.81288975e-01 3.84615391e-01 3.87941778e-01 3.91268194e-01 3.94594580e-01 3.97920996e-01 4.01247412e-01 4.04573798e-01 4.07900214e-01 4.11226600e-01 4.14553016e-01 4.17879432e-01 4.21205819e-01 4.24532235e-01 4.27858621e-01 4.31185037e-01 4.34511423e-01 4.37837839e-01 4.41164255e-01 4.44490641e-01 4.47817057e-01 4.51143444e-01 4.54469860e-01 4.57796246e-01 4.61122662e-01 4.64449078e-01 4.67775464e-01 4.71101880e-01 4.74428266e-01 4.77754682e-01 4.81081069e-01 4.84407485e-01 4.87733901e-01 4.91060287e-01 4.94386703e-01 4.97713089e-01 5.01039505e-01 5.04365921e-01 5.07692337e-01 5.11018693e-01 5.14345109e-01 5.17671525e-01 5.20997941e-01 5.24324298e-01 5.27650714e-01 5.30977130e-01 5.34303546e-01 5.37629962e-01 5.40956318e-01 5.44282734e-01 5.47609150e-01 5.50935566e-01 5.54261982e-01 5.57588339e-01 5.60914755e-01 5.64241171e-01 5.67567587e-01 5.70893943e-01 5.74220359e-01 5.77546775e-01 5.80873191e-01 5.84199607e-01 5.87525964e-01 5.90852380e-01 5.94178796e-01 5.97505212e-01 6.00831628e-01 6.04157984e-01 6.07484400e-01 6.10810816e-01 6.14137232e-01 6.17463589e-01 6.20790005e-01 6.24116421e-01 6.27442837e-01 6.30769253e-01 6.34095609e-01 6.37422025e-01 6.40748441e-01 6.44074857e-01 6.47401273e-01 6.50727630e-01 6.54054046e-01 6.57380462e-01 6.60706878e-01 6.64033294e-01 6.67359650e-01 6.70686066e-01 6.74012482e-01 6.77338898e-01 6.80665255e-01 6.83991671e-01 6.87318087e-01 6.90644503e-01 6.93970919e-01 6.97297275e-01 7.00623691e-01 7.03950107e-01 7.07276523e-01 7.10602939e-01 7.13929296e-01 7.17255712e-01 7.20582128e-01 7.23908544e-01 7.27234900e-01 7.30561316e-01 7.33887732e-01 7.37214148e-01 7.40540564e-01 7.43866920e-01 7.47193336e-01 7.50519753e-01 7.53846169e-01 7.57172585e-01 7.60498941e-01 7.63825357e-01 7.67151773e-01 7.70478189e-01 7.73804545e-01 7.77130961e-01 7.80457377e-01 7.83783793e-01 7.87110209e-01 7.90436566e-01 7.93762982e-01 7.97089398e-01 8.00415814e-01 8.03742230e-01 8.07068586e-01 8.10395002e-01 8.13721418e-01 8.17047834e-01 8.20374191e-01 8.23700607e-01 8.27027023e-01 8.30353439e-01 8.33679855e-01 8.37006211e-01 8.40332627e-01 8.43659043e-01 8.46985459e-01 8.50311875e-01 8.53638232e-01 8.56964648e-01 8.60291064e-01 8.63617480e-01 8.66943896e-01 8.70270252e-01 8.73596668e-01 8.76923084e-01 8.80249500e-01 8.83575857e-01 8.86902273e-01 8.90228689e-01 8.93555105e-01 8.96881521e-01 9.00207877e-01 9.03534293e-01 9.06860709e-01 9.10187125e-01 9.13513541e-01 9.16839898e-01 9.20166314e-01 9.23492730e-01 9.26819146e-01 9.30145502e-01 9.33471918e-01 9.36798334e-01 9.40124750e-01 9.43451166e-01 9.46777523e-01 9.50103939e-01 9.53430355e-01 9.56756771e-01 9.60083187e-01 9.63409543e-01 9.66735959e-01 9.70062375e-01 9.73388791e-01 9.76715147e-01 9.80041564e-01 9.83367980e-01 9.86694396e-01 9.90020812e-01 9.93347168e-01 9.96673584e-01 1.00000000e+00 
            </Histogram>
            <HistogramBinning NBins="301">
              -5.75957529e-07 9.94240399e-05 2.47921725e-03 5.66179585e-03 8.84496700e-03 1.10347951e-02 1.26802698e-02 1.75715629e-02 1.98357832e-02 2.17590500e-02 2.50127520e-02 2.79385615e-02 3.10909078e-02 3.32599133e-02 3.51012871e-02 3.79200578e-02 4.29980531e-02 4.62754108e-02 5.03147654e-02 5.45237549e-02 5.70685826e-02 5.88863045e-02 6.27587736e-02 6.58299252e-02 6.90679848e-02 7.39153847e-02 7.67022297e-02 7.97237754e-02 8.31375346e-02 8.66266713e-02 9.01491940e-02 9.37573761e-02 9.82017517e-02 1.02633573e-01 1.05904132e-01 1.08441494e-01 1.12871386e-01 1.16917707e-01 1.20104909e-01 1.22312114e-01 1.27025157e-01 1.29069030e-01 1.33051157e-01 1.38878196e-01 1.44400090e-01 1.48301959e-01 1.52640417e-01 1.54827595e-01 1.59609288e-01 1.63719073e-01 1.68482244e-01 1.73688814e-01 1.79653227e-01 1.84412390e-01 1.88618302e-01 1.92339525e-01 1.97294295e-01 2.00893849e-01 2.04838023e-01 2.11300284e-01 2.17358440e-01 2.24208161e-01 2.27679938e-01 2.33018547e-01 2.38584489e-01 2.42952541e-01 2.49524429e-01 2.56647795e-01 2.62669832e-01 2.68295497e-01 2.74117589e-01 2.77660370e-01 2.82754838e-01 2.90894121e-01 3.00612181e-01 3.07166159e-01 3.12203139e-01 3.17704916e-01 3.21842998e-01 3.31071615e-01 3.38311374e-01 3.45009655e-01 3.50463539e-01 3.59884918e-01 3.69890690e-01 3.76804262e-01 3.84306788e-01 3.90012562e-01 3.98223847e-01 4.04991835e-01 4.11977232e-01 4.17445689e-01 4.35679346e-01 4.45086479e-01 4.56438869e-01 4.62234259e-01 4.75510061e-01 4.83819306e-01 4.92519766e-01 4.98810232e-01 5.10902166e-01 5.23610175e-01 5.30839324e-01 5.36187291e-01 5.43159425e-01 5.50631344e-01 5.56950688e-01 5.67085028e-01 5.74887753e-01 5.83052933e-01 5.92978597e-01 5.99408865e-01 6.07792616e-01 6.25292242e-01 6.38142765e-01 6.48859560e-01 6.62200749e-01 6.73742712e-01 6.85169041e-01 6.94658458e-01 7.07785130e-01 7.27060437e-01 7.33830214e-01 7.37739861e-01 7.46304691e-01 7.62092471e-01 7.76915729e-01 7.84516156e-01 7.98531592e-01 8.09664905e-01 8.25808823e-01 8.34612668e-01 8.46197844e-01 8.57140124e-01 8.69714797e-01 8.84159505e-01 8.91120732e-01 9.05120850e-01 9.13338065e-01 9.24135745e-01 9.31444526e-01 9.42498684e-01 9.53414381e-01 9.72368836e-01 9.82567370e-01 9.91794050e-01 1.00200856e+00 1.01641083e+00 1.02697301e+00 1.04766166e+00 1.06209958e+00 1.07550466e+00 1.08365691e+00 1.09770143e+00 1.11577797e+00 1.13209486e+00 1.15603483e+00 1.17758012e+00 1.19363821e+00 1.20747578e+00 1.21764362e+00 1.23677433e+00 1.25420821e+00 1.26540625e+00 1.28043854e+00 1.29556882e+00 1.31445813e+00 1.33739984e+00 1.35202360e+00 1.36987150e+00 1.38421953e+00 1.40465844e+00 1.42777240e+00 1.44511485e+00 1.46038878e+00 1.47865844e+00 1.49302912e+00 1.50881231e+00 1.52711797e+00 1.54385686e+00 1.55729902e+00 1.57677460e+00 1.60130239e+00 1.61415863e+00 1.63438416e+00 1.65988231e+00 1.67159569e+00 1.70120013e+00 1.72493279e+00 1.73718452e+00 1.74981141e+00 1.77581084e+00 1.79158545e+00 1.80384636e+00 1.83582330e+00 1.85807037e+00 1.88981354e+00 1.91332054e+00 1.93315804e+00 1.95530653e+00 1.98439705e+00 2.00444388e+00 2.02653170e+00 2.04446101e+00 2.06925702e+00 2.08700061e+00 2.10320807e+00 2.13512754e+00 2.15728736e+00 2.18082976e+00 2.19644690e+00 2.21459699e+00 2.24479604e+00 2.26510358e+00 2.29038501e+00 2.31840158e+00 2.34424329e+00 2.36343551e+00 2.38133359e+00 2.41873860e+00 2.44390488e+00 2.46405578e+00 2.48809981e+00 2.52403116e+00 2.54246068e+00 2.58306503e+00 2.60883641e+00 2.62362313e+00 2.63899732e+00 2.66162848e+00 2.68058658e+00 2.70198727e+00 2.73335814e+00 2.76679206e+00 2.80110693e+00 2.81647944e+00 2.84379315e+00 2.86963177e+00 2.89051294e+00 2.92987919e+00 2.95184040e+00 2.97477865e+00 3.00507236e+00 3.03555179e+00 3.05959654e+00 3.08026862e+00 3.11551905e+00 3.13714528e+00 3.14927435e+00 3.18840861e+00 3.22604036e+00 3.24271250e+00 3.28885889e+00 3.32451487e+00 3.36108255e+00 3.39644790e+00 3.43154120e+00 3.45777273e+00 3.49694037e+00 3.51168180e+00 3.52611351e+00 3.54246545e+00 3.56207848e+00 3.61004448e+00 3.64144993e+00 3.68599606e+00 3.70135832e+00 3.75467110e+00 3.79180765e+00 3.82884741e+00 3.86006451e+00 3.89008784e+00 3.91995573e+00 3.96491718e+00 4.01095009e+00 4.03399611e+00 4.07898569e+00 4.10704374e+00 4.16987610e+00 4.19642258e+00 4.22791958e+00 4.26808834e+00 4.28757000e+00 4.31927776e+00 4.34602022e+00 4.37403393e+00 4.41534567e+00 4.44840813e+00 4.48822689e+00 4.52568722e+00 4.55383730e+00 4.56850004e+00 4.60796452e+00 4.64043713e+00 4.66546822e+00 4.69920683e+00 4.72206593e+00 4.77735376e+00 4.80661821e+00 4.86629677e+00 4.89518261e+00 4.99672604e+00 
            </HistogramBinning>
          </PDF>
        </CumulativePDF_cls0>
      </Variable>
      <Variable VarIndex="2">
        <CumulativePDF_cls0>
          <PDF Name="GaussTransform var2 cls0" MinNSmooth="0" MaxNSmooth="0" InterpolMethod="1" KDE_type="0" KDE_iter="1" KDE_border="1" KDE_finefactor="0.0000000000000000e+00">
            <Histogram Name="Cumulative_Var2_cls0_original" NBins="301" XMin="1.3388494960963726e-02" XMax="4.9991636276245117e+00" HasEquidistantBins="0">
              2.41164234e-03 5.40540554e-03 8.71101860e-03 1.20582124e-02 1.53846154e-02 1.87110193e-02 2.20374223e-02 2.53638253e-02 2.86902282e-02 3.20166312e-02 3.53430361e-02 3.86694372e-02 4.19958420e-02 4.53222468e-02 4.86486480e-02 5.19750528e-02 5.53014539e-02 5.86278588e-02 6.19542636e-02 6.52806684e-02 6.86070696e-02 7.19334707e-02 7.52598718e-02 7.85862803e-02 8.19126815e-02 8.52390826e-02 8.85654911e-02 9.18918923e-02 9.52182934e-02 9.85447019e-02 1.01871103e-01 1.05197504e-01 1.08523905e-01 1.11850314e-01 1.15176715e-01 1.18503116e-01 1.21829525e-01 1.25155926e-01 1.28482327e-01 1.31808728e-01 1.35135129e-01 1.38461545e-01 1.41787946e-01 1.45114347e-01 1.48440748e-01 1.51767150e-01 1.55093551e-01 1.58419952e-01 1.61746368e-01 1.65072769e-01 1.68399170e-01 1.71725571e-01 1.75051972e-01 1.78378373e-01 1.81704774e-01 1.85031191e-01 1.88357592e-01 1.91683993e-01 1.95010394e-01 1.98336795e-01 2.01663196e-01 2.04989612e-01 2.08316013e-01 2.11642414e-01 2.14968815e-01 2.18295217e-01 2.21621618e-01 2.24948019e-01 2.28274435e-01 2.31600836e-01 2.34927237e-01 2.38253638e-01 2.41580039e-01 2.44906440e-01 2.48232841e-01 2.51559258e-01 2.54885644e-01 2.58212060e-01 2.61538476e-01 2.64864862e-01 2.68191278e-01 2.71517664e-01 2.74844080e-01 2.78170466e-01 2.81496882e-01 2.84823298e-01 2.88149685e-01 2.91476101e-01 2.94802487e-01 2.98128903e-01 3.01455289e-01 3.04781705e-01 3.08108121e-01 3.11434507e-01 3.14760923e-01 3.18087310e-01 3.21413726e-01 3.24740112e-01 3.28066528e-01 3.31392944e-01 3.34719330e-01 3.38045746e-01 3.41372132e-01 3.44698548e-01 3.48024935e-01 3.51351351e-01 3.54677767e-01 3.58004153e-01 3.61330569e-01 3.64656955e-01 3.67983371e-01 3.71309757e-01 3.74636173e-01 3.77962589e-01 3.81288975e-01 3.84615391e-01 3.87941778e-01 3.91268194e-01 3.94594580e-01 3.97920996e-01 4.01247412e-01 4.04573798e-01 4.07900214e-01 4.11226600e-01 4.14553016e-01 4.17879432e-01 4.21205819e-01 4.24532235e-01 4.27858621e-01 4.31185037e-01 4.34511423e-01 4.37837839e-01 4.41164255e-01 4.44490641e-01 4.47817057e-01 4.51143444e-01 4.54469860e-01 4.57796246e-01 4.61122662e-01 4.64449078e-01 4.67775464e-01 4.71101880e-01 4.74428266e-01 4.77754682e-01 4.81081069e-01 4.84407485e-01 4.87733901e-01 4.91060287e-01 4.94386703e-01 4.97713089e-01 5.01039505e-01 5.04365921e-01 5.07692337e-01 5.11018693e-01 5.14345109e-01 5.17671525e-01 5.20997941e-01 5.24324298e-01 5.27650714e-01 5.30977130e-01 5.34303546e-01 5.37629962e-01 5.40956318e-01 5.44282734e-01 5.47609150e-01 5.50935566e-01 5.54261982e-01 5.57588339e-01 5.60914755e-01 5.64241171e-01 5.67567587e-01 5.70893943e-01 5.74220359e-01 5.77546775e-01 5.80873191e-01 5.84199607e-01 5.87525964e-01 5.90852380e-01 5.94178796e-01 5.97505212e-01 6.00831628e-01 6.04157984e-01 6.07484400e-01 6.10810816e-01 6.14137232e-01 6.17463589e-01 6.20790005e-01 6.24116421e-01 6.27442837e-01 6.30769253e-01 6.34095609e-01 6.37422025e-01 6.40748441e-01 6.44074857e-01 6.47401273e-01 6.50727630e-01 6.54054046e-01 6.57380462e-01 6.60706878e-01 6.64033294e-01 6.67359650e-01 6.70686066e-01 6.74012482e-01 6.77338898e-01 6.80665255e-01 6.83991671e-01 6.87318087e-01 6.90644503e-01 6.93970919e-01 6.97297275e-01 7.00623691e-01 7.03950107e-01 7.07276523e-01 7.10602939e-01 7.13929296e-01 7.17255712e-01 7.20582128e-01 7.23908544e-01 7.27234900e-01 7.30561316e-01 7.33887732e-01 7.37214148e-01 7.40540564e-01 7.43866920e-01 7.47193336e-01 7.50519753e-01 7.53846169e-01 7.57172585e-01 7.60498941e-01 7.63825357e-01 7.67151773e-01 7.70478189e-01 7.73804545e-01 7.77130961e-01 7.80457377e-01 7.83783793e-01 7.87110209e-01 7.90436566e-01 7.93762982e-01 7.97089398e-01 8.00415814e-01 8.03742230e-01 8.07068586e-01 8.10395002e-01 8.13721418e-01 8.17047834e-01 8.20374191e-01 8.23700607e-01 8.27027023e-01 8.30353439e-01 8.33679855e-01 8.37006211e-01 8.40332627e-01 8.43659043e-01 8.46985459e-01 8.50311875e-01 8.53638232e-01 8.56964648e-01 8.60291064e-01 8.63617480e-01 8.66943896e-01 8.70270252e-01 8.73596668e-01 8.76923084e-01 8.80249500e-01 8.83575857e-01 8.86902273e-01 8.90228689e-01 8.93555105e-01 8.96881521e-01 9.00207877e-01 9.03534293e-01 9.06860709e-01 9.10187125e-01 9.13513541e-01 9.16839898e-01 9.20166314e-01 9.23492730e-01 9.26819146e-01 9.30145502e-01 9.33471918e-01 9.36798334e-01 9.40124750e-01 9.43451166e-01 9.46777523e-01 9.50103939e-01 9.53430355e-01 9.56756771e-01 9.60083187e-01 9.63409543e-01 9.66735959e-01 9.70062375e-01 9.73388791e-01 9.76715147e-01 9.80041564e-01 9.83367980e-01 9.86694396e-01 9.90020812e-01 9.93347168e-01 9.96673584e-01 1.00000000e+00 
            </Histogram>
            <HistogramBinning NBins="301">
              1.33884950e-02 1.34884948e-02 9.30787995e-02 1.78279310e-01 2.71459609e-01 3.18621546e-01 3.89218479e-01 4.84096676e-01 5.22518337e-01 5.88529825e-01 6.33848488e-01 6.70049131e-01 7.80576289e-01 8.14474940e-01 9.23605680e-01 9.60423708e-01 1.00944519e+00 1.05488861e+00 1.11628819e+00 1.16145003e+00 1.19732749e+00 1.22941601e+00 1.29524982e+00 1.34579206e+00 1.37093878e+00 1.42630708e+00 1.47221708e+00 1.51116967e+00 1.54375434e+00 1.58842993e+00 1.61423600e+00 1.65829027e+00 1.68309426e+00 1.71097183e+00 1.73867309e+00 1.77342117e+00 1.80810928e+00 1.85660911e+00 1.89311981e+00 1.91731179e+00 1.94714797e+00 1.98849225e+00 2.02107501e+00 2.04801106e+00 2.07184720e+00 2.10852575e+00 2.13542557e+00 2.16023302e+00 2.17808270e+00 2.18921542e+00 2.20781469e+00 2.23401475e+00 2.26243353e+00 2.28151870e+00 2.30401993e+00 2.32178426e+00 2.33992863e+00 2.35916352e+00 2.37716031e+00 2.39497471e+00 2.40483427e+00 2.43638945e+00 2.45647478e+00 2.47586846e+00 2.50316763e+00 2.52096200e+00 2.54041386e+00 2.56077719e+00 2.57585239e+00 2.59165645e+00 2.61763644e+00 2.64622855e+00 2.65955496e+00 2.68357992e+00 2.70670390e+00 2.72161031e+00 2.74085236e+00 2.75540543e+00 2.77305198e+00 2.80995750e+00 2.82393265e+00 2.84901619e+00 2.87094760e+00 2.89269066e+00 2.90969896e+00 2.94477749e+00 2.95671153e+00 2.97538972e+00 2.98818183e+00 3.00670815e+00 3.01219559e+00 3.02887082e+00 3.04754353e+00 3.06780553e+00 3.07614923e+00 3.09665465e+00 3.11077523e+00 3.12954664e+00 3.14059091e+00 3.15328717e+00 3.17540884e+00 3.19130516e+00 3.21112156e+00 3.23164582e+00 3.24485397e+00 3.26176286e+00 3.27603340e+00 3.28942657e+00 3.31000781e+00 3.31753469e+00 3.33333087e+00 3.34302855e+00 3.36129332e+00 3.37287426e+00 3.38781762e+00 3.39903259e+00 3.41691303e+00 3.42908812e+00 3.44274020e+00 3.46512413e+00 3.47439289e+00 3.48719382e+00 3.50253320e+00 3.51439261e+00 3.52444315e+00 3.53623486e+00 3.55026460e+00 3.56319547e+00 3.57164073e+00 3.57969761e+00 3.59912324e+00 3.61290359e+00 3.62303329e+00 3.63677740e+00 3.64549804e+00 3.65929174e+00 3.67402267e+00 3.68012500e+00 3.69245434e+00 3.70283890e+00 3.71164608e+00 3.72310925e+00 3.73244619e+00 3.74383378e+00 3.75577831e+00 3.76649022e+00 3.78234267e+00 3.79080629e+00 3.80362105e+00 3.81816673e+00 3.83066463e+00 3.84855032e+00 3.85864282e+00 3.86773229e+00 3.87864375e+00 3.88738084e+00 3.89634109e+00 3.90979123e+00 3.91677284e+00 3.92203665e+00 3.92755389e+00 3.93930626e+00 3.95294905e+00 3.95699263e+00 3.97142863e+00 3.98319316e+00 3.99490476e+00 4.00463772e+00 4.01189852e+00 4.02405357e+00 4.03046942e+00 4.03636312e+00 4.05265951e+00 4.06483412e+00 4.07754183e+00 4.08546972e+00 4.09072828e+00 4.09809017e+00 4.11529684e+00 4.12708473e+00 4.13684893e+00 4.14981651e+00 4.16073799e+00 4.16696930e+00 4.17891788e+00 4.18771935e+00 4.19786882e+00 4.20658016e+00 4.21633959e+00 4.22383022e+00 4.23552036e+00 4.24298954e+00 4.25050974e+00 4.25719547e+00 4.26458216e+00 4.27325726e+00 4.28474808e+00 4.29296589e+00 4.29823256e+00 4.30359125e+00 4.31181955e+00 4.31887627e+00 4.32590008e+00 4.33132601e+00 4.34306479e+00 4.35033798e+00 4.35979939e+00 4.36520624e+00 4.37171602e+00 4.38188553e+00 4.38712740e+00 4.39533424e+00 4.40156841e+00 4.40587282e+00 4.41145658e+00 4.42379808e+00 4.42964506e+00 4.43350124e+00 4.44024611e+00 4.45072317e+00 4.45741177e+00 4.46481848e+00 4.47092104e+00 4.47537565e+00 4.48179293e+00 4.48939991e+00 4.49720669e+00 4.50090122e+00 4.51021147e+00 4.51674461e+00 4.51945591e+00 4.52404261e+00 4.53297949e+00 4.53992367e+00 4.55350637e+00 4.56417131e+00 4.57558203e+00 4.58080864e+00 4.58652878e+00 4.60113811e+00 4.60771942e+00 4.61221600e+00 4.61961651e+00 4.62571001e+00 4.63786316e+00 4.64504337e+00 4.65192699e+00 4.65958500e+00 4.66236162e+00 4.67075825e+00 4.67776394e+00 4.68259192e+00 4.69131947e+00 4.70023918e+00 4.70468950e+00 4.70979691e+00 4.71602964e+00 4.72329521e+00 4.73109531e+00 4.73601103e+00 4.74361277e+00 4.75175905e+00 4.76161671e+00 4.76704884e+00 4.77420712e+00 4.78033018e+00 4.79097414e+00 4.79445839e+00 4.80154228e+00 4.80536318e+00 4.81510592e+00 4.82417488e+00 4.82851553e+00 4.83771181e+00 4.84447861e+00 4.85049820e+00 4.85269976e+00 4.85628033e+00 4.86544847e+00 4.86937761e+00 4.87592077e+00 4.88523436e+00 4.88804102e+00 4.89351368e+00 4.89690256e+00 4.90405750e+00 4.91051197e+00 4.91260862e+00 4.91885185e+00 4.92458105e+00 4.93202496e+00 4.93804836e+00 4.94551849e+00 4.95110226e+00 4.95895910e+00 4.96435404e+00 4.97024298e+00 4.97583628e+00 4.98162985e+00 4.98765802e+00 4.99503469e+00 4.99916363e+00 
            </HistogramBinning>
          </PDF>
        </CumulativePDF_cls0>
      </Variable>
      <Variable VarIndex="3">
        <CumulativePDF_cls0>
          <PDF Name="GaussTransform var3 cls0" MinNSmooth="0" MaxNSmooth="0" InterpolMethod="1" KDE_type="0" KDE_iter="1" KDE_border="1" KDE_finefactor="0.0000000000000000e+00">
            <Histogram Name="Cumulative_Var3_cls0_original" NBins="301" XMin="-4.4454684257507324e+00" XMax="9.9365415573120117e+00" HasEquidistantBins="0">
              2.41164234e-03 5.40540554e-03 8.71101860e-03 1.20582124e-02 1.53846154e-02 1.87110193e-02 2.20374223e-02 2.53638253e-02 2.86902282e-02 3.20166312e-02 3.53430361e-02 3.86694372e-02 4.19958420e-02 4.53222468e-02 4.86486480e-02 5.19750528e-02 5.53014539e-02 5.86278588e-02 6.19542636e-02 6.52806684e-02 6.86070696e-02 7.19334707e-02 7.52598718e-02 7.85862803e-02 8.19126815e-02 8.52390826e-02 8.85654911e-02 9.18918923e-02 9.52182934e-02 9.85447019e-02 1.01871103e-01 1.05197504e-01 1.08523905e-01 1.11850314e-01 1.15176715e-01 1.18503116e-01 1.21829525e-01 1.25155926e-01 1.28482327e-01 1.31808728e-01 1.35135129e-01 1.38461545e-01 1.41787946e-01 1.45114347e-01 1.48440748e-01 1.51767150e-01 1.55093551e-01 1.58419952e-01 1.61746368e-01 1.65072769e-01 1.68399170e-01 1.71725571e-01 1.75051972e-01 1.78378373e-01 1.81704774e-01 1.85031191e-01 1.88357592e-01 1.91683993e-01 1.95010394e-01 1.98336795e-01 2.01663196e-01 2.04989612e-01 2.08316013e-01 2.11642414e-01 2.14968815e-01 2.18295217e-01 2.21621618e-01 2.24948019e-01 2.28274435e-01 2.31600836e-01 2.34927237e-01 2.38253638e-01 2.41580039e-01 2.44906440e-01 2.48232841e-01 2.51559258e-01 2.54885644e-01 2.58212060e-01 2.61538476e-01 2.64864862e-01 2.68191278e-01 2.71517664e-01 2.74844080e-01 2.78170466e-01 2.81496882e-01 2.84823298e-01 2.88149685e-01 2.91476101e-01 2.94802487e-01 2.98128903e-01 3.01455289e-01 3.04781705e-01 3.08108121e-01 3.11434507e-01 3.14760923e-01 3.18087310e-01 3.21413726e-01 3.24740112e-01 3.28066528e-01 3.31392944e-01 3.34719330e-01 3.38045746e-01 3.41372132e-01 3.44698548e-01 3.48024935e-01 3.51351351e-01 3.54677767e-01 3.58004153e-01 3.61330569e-01 3.64656955e-01 3.67983371e-01 3.71309757e-01 3.74636173e-01 3.77962589e-01 3.81288975e-01 3.84615391e-01 3.87941778e-01 3.91268194e-01 3.94594580e-01 3.97920996e-01 4.01247412e-01 4.04573798e-01 4.07900214e-01 4.11226600e-01 4.14553016e-01 4.17879432e-01 4.21205819e-01 4.24532235e-01 4.27858621e-01 4.31185037e-01 4.34511423e-01 4.37837839e-01 4.41164255e-01 4.44490641e-01 4.47817057e-01 4.51143444e-01 4.54469860e-01 4.57796246e-01 4.61122662e-01 4.64449078e-01 4.67775464e-01 4.71101880e-01 4.74428266e-01 4.77754682e-01 4.81081069e-01 4.84407485e-01 4.87733901e-01 4.91060287e-01 4.94386703e-01 4.97713089e-01 5.01039505e-01 5.04365921e-01 5.07692337e-01 5.11018693e-01 5.14345109e-01 5.17671525e-01 5.20997941e-01 5.24324298e-01 5.27650714e-01 5.30977130e-01 5.34303546e-01 5.37629962e-01 5.40956318e-01 5.44282734e-01 5.47609150e-01 5.50935566e-01 5.54261982e-01 5.57588339e-01 5.60914755e-01 5.64241171e-01 5.67567587e-01 5.70893943e-01 5.74220359e-01 5.77546775e-01 5.80873191e-01 5.84199607e-01 5.87525964e-01 5.90852380e-01 5.94178796e-01 5.97505212e-01 6.00831628e-01 6.04157984e-01 6.07484400e-01 6.10810816e-01 6.14137232e-01 6.17463589e-01 6.20790005e-01 6.24116421e-01 6.27442837e-01 6.30769253e-01 6.34095609e-01 6.37422025e-01 6.40748441e-01 6.44074857e-01 6.47401273e-01 6.50727630e-01 6.54054046e-01 6.57380462e-01 6.60706878e-01 6.64033294e-01 6.67359650e-01 6.70686066e-01 6.74012482e-01 6.77338898e-01 6.80665255e-01 6.83991671e-01 6.87318087e-01 6.90644503e-01 6.93970919e-01 6.97297275e-01 7.00623691e-01 7.03950107e-01 7.07276523e-01 7.10602939e-01 7.13929296e-01 7.17255712e-01 7.20582128e-01 7.23908544e-01 7.27234900e-01 7.30561316e-01 7.33887732e-01 7.37214148e-01 7.40540564e-01 7.43866920e-01 7.47193336e-01 7.50519753e-01 7.53846169e-01 7.57172585e-01 7.60498941e-01 7.63825357e-01 7.67151773e-01 7.70478189e-01 7.73804545e-01 7.77130961e-01 7.80457377e-01 7.83783793e-01 7.87110209e-01 7.90436566e-01 7.93762982e-01 7.97089398e-01 8.00415814e-01 8.03742230e-01 8.07068586e-01 8.10395002e-01 8.13721418e-01 8.17047834e-01 8.20374191e-01 8.23700607e-01 8.27027023e-01 8.30353439e-01 8.33679855e-01 8.37006211e-01 8.40332627e-01 8.43659043e-01 8.46985459e-01 8.50311875e-01 8.53638232e-01 8.56964648e-01 8.60291064e-01 8.63617480e-01 8.66943896e-01 8.70270252e-01 8.73596668e-01 8.76923084e-01 8.80249500e-01 8.83575857e-01 8.86902273e-01 8.90228689e-01 8.93555105e-01 8.96881521e-01 9.00207877e-01 9.03534293e-01 9.06860709e-01 9.10187125e-01 9.13513541e-01 9.16839898e-01 9.20166314e-01 9.23492730e-01 9.26819146e-01 9.30145502e-01 9.33471918e-01 9.36798334e-01 9.40124750e-01 9.43451166e-01 9.46777523e-01 9.50103939e-01 9.53430355e-01 9.56756771e-01 9.60083187e-01 9.63409543e-01 9.66735959e-01 9.70062375e-01 9.73388791e-01 9.76715147e-01 9.80041564e-01 9.83367980e-01 9.86694396e-01 9.90020812e-01 9.93347168e-01 9.96673584e-01 1.00000000e+00 
            </Histogram>
            <HistogramBinning NBins="301">
              -4.44546843e+00 -4.44536829e+00 -3.32934666e+00 -2.93403816e+00 -2.61717129e+00 -2.45196795e+00 -2.38325453e+00 -2.30129194e+00 -2.18775129e+00 -2.15953064e+00 -2.06630754e+00 -1.91007376e+00 -1.82288682e+00 -1.73187709e+00 -1.62324286e+00 -1.54560232e+00 -1.47763109e+00 -1.38852215e+00 -1.32585931e+00 -1.25797963e+00 -1.22638595e+00 -1.18996119e+00 -1.14256084e+00 -1.10689974e+00 -1.01951981e+00 -9.61426020e-01 -9.43891287e-01 -8.94454241e-01 -8.37683082e-01 -7.59310961e-01 -7.09404349e-01 -6.78798199e-01 -6.46357417e-01 -6.15676880e-01 -5.73202610e-01 -5.14612913e-01 -4.77699995e-01 -4.28867340e-01 -3.89729738e-01 -3.42358351e-01 -3.06114435e-01 -2.73644805e-01 -2.32773304e-01 -2.03631788e-01 -1.68959856e-01 -1.57964230e-01 -1.47305965e-01 -1.35619164e-01 -1.17304623e-01 -1.00818396e-01 -9.42111015e-02 -7.65368938e-02 -6.55069351e-02 -4.76897955e-02 -3.39351296e-02 -9.77659225e-03 -9.22203064e-04 7.29645044e-03 1.09257698e-02 2.86667347e-02 3.27464342e-02 4.22557592e-02 4.75864410e-02 5.75866699e-02 6.05397224e-02 7.18688965e-02 8.55357051e-02 9.69398022e-02 1.05024338e-01 1.14053249e-01 1.19754314e-01 1.24976635e-01 1.31160259e-01 1.37531519e-01 1.45001650e-01 1.50407314e-01 1.58551216e-01 1.62081718e-01 1.66375846e-01 1.74399614e-01 1.79647684e-01 1.87836945e-01 1.93112612e-01 1.96169853e-01 2.03460217e-01 2.13440895e-01 2.19261169e-01 2.22210661e-01 2.26081431e-01 2.29329109e-01 2.38058567e-01 2.43547916e-01 2.51516581e-01 2.57314682e-01 2.61979342e-01 2.71211386e-01 2.79433727e-01 2.88348556e-01 2.92984843e-01 3.07265073e-01 3.19293082e-01 3.27514887e-01 3.40007305e-01 3.51415873e-01 3.56945038e-01 3.70510459e-01 3.76966119e-01 3.88425887e-01 3.95606756e-01 4.08422232e-01 4.15024936e-01 4.22973752e-01 4.38496828e-01 4.51604843e-01 4.65459883e-01 4.72339272e-01 4.93766308e-01 5.07218659e-01 5.19917250e-01 5.27575254e-01 5.35184324e-01 5.46161771e-01 5.53987503e-01 5.63309848e-01 5.75363517e-01 5.82897782e-01 5.94346046e-01 6.13917828e-01 6.21883273e-01 6.32238150e-01 6.42437696e-01 6.66145205e-01 6.82852745e-01 7.00902700e-01 7.13886321e-01 7.26515412e-01 7.45489359e-01 7.61053026e-01 7.74753571e-01 7.91558862e-01 8.11071754e-01 8.35502267e-01 8.61727953e-01 8.74949217e-01 8.91416430e-01 9.02407765e-01 9.14092898e-01 9.24434185e-01 9.37220812e-01 9.52205896e-01 9.61708367e-01 9.75094914e-01 9.95285392e-01 1.00902009e+00 1.02373099e+00 1.04174352e+00 1.06076121e+00 1.08060241e+00 1.09811139e+00 1.12381101e+00 1.13875794e+00 1.15531290e+00 1.17145693e+00 1.18672454e+00 1.20474231e+00 1.21682763e+00 1.23603117e+00 1.24995422e+00 1.26646996e+00 1.29442191e+00 1.31440163e+00 1.32724547e+00 1.34452128e+00 1.35864568e+00 1.37302685e+00 1.39027977e+00 1.40786147e+00 1.43457067e+00 1.45247436e+00 1.47476065e+00 1.49349546e+00 1.51307702e+00 1.54526174e+00 1.55966735e+00 1.58394945e+00 1.61120427e+00 1.62487996e+00 1.63973939e+00 1.64976811e+00 1.66851974e+00 1.68481612e+00 1.69929063e+00 1.71106434e+00 1.72744429e+00 1.75404584e+00 1.76582205e+00 1.78945351e+00 1.81412911e+00 1.83780360e+00 1.86439872e+00 1.88732553e+00 1.90046751e+00 1.92280567e+00 1.94726229e+00 1.97577596e+00 1.99060583e+00 2.00740814e+00 2.02599359e+00 2.05454779e+00 2.06957579e+00 2.08662987e+00 2.10099697e+00 2.12586451e+00 2.14880180e+00 2.18528438e+00 2.20535278e+00 2.25218892e+00 2.27597713e+00 2.29869127e+00 2.32035136e+00 2.35503006e+00 2.38859081e+00 2.42759657e+00 2.44396138e+00 2.46335864e+00 2.50617528e+00 2.53602505e+00 2.55672288e+00 2.58280754e+00 2.62191916e+00 2.65167689e+00 2.67756915e+00 2.71014977e+00 2.75003505e+00 2.77264261e+00 2.80634308e+00 2.83370328e+00 2.86427689e+00 2.88714743e+00 2.91213131e+00 2.95223117e+00 3.00237107e+00 3.03960085e+00 3.06518936e+00 3.09469366e+00 3.14234900e+00 3.15668154e+00 3.17994165e+00 3.22168064e+00 3.23947573e+00 3.25104475e+00 3.29902673e+00 3.32698941e+00 3.38466120e+00 3.45661020e+00 3.51156020e+00 3.53913069e+00 3.59940314e+00 3.65633821e+00 3.70906878e+00 3.77381992e+00 3.85812306e+00 3.90795088e+00 3.95977354e+00 4.02107096e+00 4.08112812e+00 4.12876129e+00 4.14174604e+00 4.18503666e+00 4.28158617e+00 4.34576893e+00 4.48536730e+00 4.52891111e+00 4.61537933e+00 4.70433187e+00 4.82805252e+00 4.95308876e+00 5.00511169e+00 5.08067465e+00 5.19320202e+00 5.35452986e+00 5.50259447e+00 5.60868788e+00 5.70251846e+00 5.85333443e+00 5.95165634e+00 6.10628223e+00 6.22494984e+00 6.44729614e+00 6.54198313e+00 6.79331541e+00 6.91437101e+00 7.14208460e+00 7.44112062e+00 7.74327850e+00 7.91652775e+00 8.24881649e+00 8.45169735e+00 8.67056179e+00 9.14200497e+00 9.64091206e+00 9.93654156e+00 
            </HistogramBinning>
          </PDF>
        </CumulativePDF_cls0>
      </Variable>
      <Variable VarIndex="4">
        <CumulativePDF_cls0>
          <PDF Name="GaussTransform var4 cls0" MinNSmooth="0" MaxNSmooth="0" InterpolMethod="1" KDE_type="0" KDE_iter="1" KDE_border="1" KDE_finefactor="0.0000000000000000e+00">
            <Histogram Name="Cumulative_Var4_cls0_original" NBins="301" XMin="2.2888373583555222e-02" XMax="4.8219959259033203e+01" HasEquidistantBins="0">
              2.41164234e-03 5.40540554e-03 8.71101860e-03 1.20582124e-02 1.53846154e-02 1.87110193e-02 2.20374223e-02 2.53638253e-02 2.86902282e-02 3.20166312e-02 3.53430361e-02 3.86694372e-02 4.19958420e-02 4.53222468e-02 4.86486480e-02 5.19750528e-02 5.53014539e-02 5.86278588e-02 6.19542636e-02 6.52806684e-02 6.86070696e-02 7.19334707e-02 7.52598718e-02 7.85862803e-02 8.19126815e-02 8.52390826e-02 8.85654911e-02 9.18918923e-02 9.52182934e-02 9.85447019e-02 1.01871103e-01 1.05197504e-01 1.08523905e-01 1.11850314e-01 1.15176715e-01 1.18503116e-01 1.21829525e-01 1.25155926e-01 1.28482327e-01 1.31808728e-01 1.35135129e-01 1.38461545e-01 1.41787946e-01 1.45114347e-01 1.48440748e-01 1.51767150e-01 1.55093551e-01 1.58419952e-01 1.61746368e-01 1.65072769e-01 1.68399170e-01 1.71725571e-01 1.75051972e-01 1.78378373e-01 1.81704774e-01 1.85031191e-01 1.88357592e-01 1.91683993e-01 1.95010394e-01 1.98336795e-01 2.01663196e-01 2.04989612e-01 2.08316013e-01 2.11642414e-01 2.14968815e-01 2.18295217e-01 2.21621618e-01 2.24948019e-01 2.28274435e-01 2.31600836e-01 2.34927237e-01 2.38253638e-01 2.41580039e-01 2.44906440e-01 2.48232841e-01 2.51559258e-01 2.54885644e-01 2.58212060e-01 2.61538476e-01 2.64864862e-01 2.68191278e-01 2.71517664e-01 2.74844080e-01 2.78170466e-01 2.81496882e-01 2.84823298e-01 2.88149685e-01 2.91476101e-01 2.94802487e-01 2.98128903e-01 3.01455289e-01 3.04781705e-01 3.08108121e-01 3.11434507e-01 3.14760923e-01 3.18087310e-01 3.21413726e-01 3.24740112e-01 3.28066528e-01 3.31392944e-01 3.34719330e-01 3.38045746e-01 3.41372132e-01 3.44698548e-01 3.48024935e-01 3.51351351e-01 3.54677767e-01 3.58004153e-01 3.61330569e-01 3.64656955e-01 3.67983371e-01 3.71309757e-01 3.74636173e-01 3.77962589e-01 3.81288975e-01 3.84615391e-01 3.87941778e-01 3.91268194e-01 3.94594580e-01 3.97920996e-01 4.01247412e-01 4.04573798e-01 4.07900214e-01 4.11226600e-01 4.14553016e-01 4.17879432e-01 4.21205819e-01 4.24532235e-01 4.27858621e-01 4.31185037e-01 4.34511423e-01 4.37837839e-01 4.41164255e-01 4.44490641e-01 4.47817057e-01 4.51143444e-01 4.54469860e-01 4.57796246e-01 4.61122662e-01 4.64449078e-01 4.67775464e-01 4.71101880e-01 4.74428266e-01 4.77754682e-01 4.81081069e-01 4.84407485e-01 4.87733901e-01 4.91060287e-01 4.94386703e-01 4.97713089e-01 5.01039505e-01 5.04365921e-01 5.07692337e-01 5.11018693e-01 5.14345109e-01 5.17671525e-01 5.20997941e-01 5.24324298e-01 5.27650714e-01 5.30977130e-01 5.34303546e-01 5.37629962e-01 5.40956318e-01 5.44282734e-01 5.47609150e-01 5.50935566e-01 5.54261982e-01 5.57588339e-01 5.60914755e-01 5.64241171e-01 5.67567587e-01 5.70893943e-01 5.74220359e-01 5.77546775e-01 5.80873191e-01 5.84199607e-01 5.87525964e-01 5.90852380e-01 5.94178796e-01 5.97505212e-01 6.00831628e-01 6.04157984e-01 6.07484400e-01 6.10810816e-01 6.14137232e-01 6.17463589e-01 6.20790005e-01 6.24116421e-01 6.27442837e-01 6.30769253e-01 6.34095609e-01 6.37422025e-01 6.40748441e-01 6.44074857e-01 6.47401273e-01 6.50727630e-01 6.54054046e-01 6.57380462e-01 6.60706878e-01 6.64033294e-01 6.67359650e-01 6.70686066e-01 6.74012482e-01 6.77338898e-01 6.80665255e-01 6.83991671e-01 6.87318087e-01 6.90644503e-01 6.93970919e-01 6.97297275e-01 7.00623691e-01 7.03950107e-01 7.07276523e-01 7.10602939e-01 7.13929296e-01 7.17255712e-01 7.20582128e-01 7.23908544e-01 7.27234900e-01 7.30561316e-01 7.33887732e-01 7.37214148e-01 7.40540564e-01 7.43866920e-01 7.47193336e-01 7.50519753e-01 7.53846169e-01 7.57172585e-01 7.60498941e-01 7.63825357e-01 7.67151773e-01 7.70478189e-01 7.73804545e-01 7.77130961e-01 7.80457377e-01 7.83783793e-01 7.87110209e-01 7.90436566e-01 7.93762982e-01 7.97089398e-01 8.00415814e-01 8.03742230e-01 8.07068586e-01 8.10395002e-01 8.13721418e-01 8.17047834e-01 8.20374191e-01 8.23700607e-01 8.27027023e-01 8.30353439e-01 8.33679855e-01 8.37006211e-01 8.40332627e-01 8.43659043e-01 8.46985459e-01 8.50311875e-01 8.53638232e-01 8.56964648e-01 8.60291064e-01 8.63617480e-01 8.66943896e-01 8.70270252e-01 8.73596668e-01 8.76923084e-01 8.80249500e-01 8.83575857e-01 8.86902273e-01 8.90228689e-01 8.93555105e-01 8.96881521e-01 9.00207877e-01 9.03534293e-01 9.06860709e-01 9.10187125e-01 9.13513541e-01 9.16839898e-01 9.20166314e-01 9.23492730e-01 9.26819146e-01 9.30145502e-01 9.33471918e-01 9.36798334e-01 9.40124750e-01 9.43451166e-01 9.46777523e-01 9.50103939e-01 9.53430355e-01 9.56756771e-01 9.60083187e-01 9.63409543e-01 9.66735959e-01 9.70062375e-01 9.73388791e-01 9.76715147e-01 9.80041564e-01 9.83367980e-01 9.86694396e-01 9.90020812e-01 9.93347168e-01 9.96673584e-01 1.00000000e+00 
            </Histogram>
            <HistogramBinning NBins="301">
              2.28883736e-02 2.29883734e-02 1.90104142e-01 4.14170295e-01 6.01485550e-01 7.00046837e-01 7.91037321e-01 9.09226179e-01 1.00451481e+00 1.09506297e+00 1.21814859e+00 1.31476450e+00 1.47267020e+00 1.55536604e+00 1.67367852e+00 1.74239254e+00 1.81537652e+00 1.88732779e+00 2.00550008e+00 2.12496066e+00 2.15750265e+00 2.26367712e+00 2.29836106e+00 2.33500075e+00 2.39025521e+00 2.44777203e+00 2.56412125e+00 2.61686850e+00 2.69659424e+00 2.75775099e+00 2.83257174e+00 2.86640549e+00 2.89326882e+00 2.96427464e+00 3.05977964e+00 3.18343616e+00 3.24103165e+00 3.30646729e+00 3.35037971e+00 3.42024255e+00 3.49794459e+00 3.54919243e+00 3.62704945e+00 3.73905706e+00 3.79382539e+00 3.83134270e+00 3.85170269e+00 3.91389656e+00 3.95397258e+00 4.01239824e+00 4.06760454e+00 4.10103178e+00 4.14572191e+00 4.18663740e+00 4.24235010e+00 4.29158688e+00 4.34679747e+00 4.38114786e+00 4.43581724e+00 4.52764368e+00 4.59807777e+00 4.64420319e+00 4.68078566e+00 4.71454430e+00 4.78058195e+00 4.80877447e+00 4.85755825e+00 4.94264269e+00 4.99094915e+00 5.06624699e+00 5.14455128e+00 5.22770214e+00 5.26859426e+00 5.29509306e+00 5.33164644e+00 5.36943722e+00 5.40349483e+00 5.45425081e+00 5.54888153e+00 5.59548044e+00 5.64488792e+00 5.67972088e+00 5.73012543e+00 5.80396795e+00 5.82559299e+00 5.84791756e+00 5.88117838e+00 5.94852495e+00 5.98976374e+00 6.03036737e+00 6.09226942e+00 6.13756657e+00 6.19186783e+00 6.22072649e+00 6.27326870e+00 6.31146097e+00 6.38153505e+00 6.44207430e+00 6.47016764e+00 6.50720978e+00 6.56329679e+00 6.61842012e+00 6.66779184e+00 6.71235275e+00 6.81071997e+00 6.84797716e+00 6.90096474e+00 6.94177151e+00 6.96899796e+00 7.00972986e+00 7.06197309e+00 7.09764338e+00 7.12521553e+00 7.17109919e+00 7.23740387e+00 7.27091646e+00 7.32685709e+00 7.35778284e+00 7.45079994e+00 7.51066685e+00 7.56107283e+00 7.62986279e+00 7.69618034e+00 7.73125076e+00 7.78457928e+00 7.84221220e+00 7.90106869e+00 7.91819954e+00 7.98503208e+00 8.02230644e+00 8.06245041e+00 8.11559582e+00 8.15008640e+00 8.19148731e+00 8.25604057e+00 8.28617287e+00 8.36573219e+00 8.38547134e+00 8.43894577e+00 8.48651886e+00 8.51943016e+00 8.57487488e+00 8.64740372e+00 8.70453835e+00 8.74557304e+00 8.82488251e+00 8.88451862e+00 8.93861485e+00 8.97604561e+00 9.03749847e+00 9.06972218e+00 9.11054611e+00 9.19026566e+00 9.22801208e+00 9.28520298e+00 9.33271503e+00 9.40586281e+00 9.42605686e+00 9.45857716e+00 9.50693893e+00 9.56076241e+00 9.65964890e+00 9.68701458e+00 9.74038506e+00 9.77759075e+00 9.81319141e+00 9.84798908e+00 9.90512180e+00 9.94129848e+00 1.00446253e+01 1.01124096e+01 1.01845045e+01 1.02793789e+01 1.03279028e+01 1.04027729e+01 1.04736528e+01 1.05850811e+01 1.06284714e+01 1.07100458e+01 1.07821093e+01 1.08427382e+01 1.08969679e+01 1.09939213e+01 1.10495911e+01 1.11167164e+01 1.11653233e+01 1.12523575e+01 1.13013515e+01 1.13491325e+01 1.14010029e+01 1.14715252e+01 1.15538778e+01 1.16165018e+01 1.17053852e+01 1.17592735e+01 1.18244982e+01 1.18795004e+01 1.19502401e+01 1.20118971e+01 1.20739374e+01 1.21392756e+01 1.21972322e+01 1.22535944e+01 1.23487196e+01 1.24175224e+01 1.24642992e+01 1.25198164e+01 1.26391163e+01 1.26817722e+01 1.27995338e+01 1.29025841e+01 1.29775171e+01 1.30311842e+01 1.31043310e+01 1.31763687e+01 1.32416649e+01 1.33840952e+01 1.34648876e+01 1.35279808e+01 1.35968256e+01 1.36782770e+01 1.38185854e+01 1.39209394e+01 1.40009127e+01 1.40546942e+01 1.41530437e+01 1.42490330e+01 1.43177547e+01 1.44163780e+01 1.45452614e+01 1.46214752e+01 1.47541389e+01 1.48783436e+01 1.49922705e+01 1.50738707e+01 1.51929712e+01 1.52763615e+01 1.53733568e+01 1.54988651e+01 1.56153908e+01 1.57682381e+01 1.58502626e+01 1.59315357e+01 1.61723270e+01 1.62912331e+01 1.63886375e+01 1.65129547e+01 1.66485977e+01 1.67454700e+01 1.68057003e+01 1.69370537e+01 1.70461311e+01 1.72160416e+01 1.74300137e+01 1.75794849e+01 1.77093697e+01 1.79980679e+01 1.82273483e+01 1.82956505e+01 1.84311924e+01 1.86340141e+01 1.87586536e+01 1.88983421e+01 1.90475178e+01 1.92702446e+01 1.93798828e+01 1.95544758e+01 1.98313065e+01 1.99985981e+01 2.02230568e+01 2.03442059e+01 2.04704590e+01 2.06879520e+01 2.09393196e+01 2.12169991e+01 2.14542751e+01 2.17810478e+01 2.21034622e+01 2.24486427e+01 2.27586308e+01 2.31621628e+01 2.34923592e+01 2.37572231e+01 2.41864109e+01 2.46351700e+01 2.53605213e+01 2.59867973e+01 2.68171215e+01 2.74640236e+01 2.79682064e+01 2.85834732e+01 2.91655560e+01 3.00063629e+01 3.06666965e+01 3.14188995e+01 3.24739876e+01 3.39180374e+01 3.46967201e+01 3.71549263e+01 3.94695892e+01 4.44752235e+01 4.82199593e+01 
            </HistogramBinning>
          </PDF>
        </CumulativePDF_cls0>
      </Variable>
      <Variable VarIndex="5">
        <CumulativePDF_cls0>
          <PDF Name="GaussTransform var5 cls0" MinNSmooth="0" MaxNSmooth="0" InterpolMethod="1" KDE_type="0" KDE_iter="1" KDE_border="1" KDE_finefactor="0.0000000000000000e+00">
            <Histogram Name="Cumulative_Var5_cls0_original" NBins="301" XMin="2.5486510992050171e-01" XMax="9.7770404815673828e+00" HasEquidistantBins="0">
              2.41164234e-03 5.40540554e-03 8.71101860e-03 1.20582124e-02 1.53846154e-02 1.87110193e-02 2.20374223e-02 2.53638253e-02 2.86902282e-02 3.20166312e-02 3.53430361e-02 3.86694372e-02 4.19958420e-02 4.53222468e-02 4.86486480e-02 5.19750528e-02 5.53014539e-02 5.86278588e-02 6.19542636e-02 6.52806684e-02 6.86070696e-02 7.19334707e-02 7.52598718e-02 7.85862803e-02 8.19126815e-02 8.52390826e-02 8.85654911e-02 9.18918923e-02 9.52182934e-02 9.85447019e-02 1.01871103e-01 1.05197504e-01 1.08523905e-01 1.11850314e-01 1.15176715e-01 1.18503116e-01 1.21829525e-01 1.25155926e-01 1.28482327e-01 1.31808728e-01 1.35135129e-01 1.38461545e-01 1.41787946e-01 1.45114347e-01 1.48440748e-01 1.51767150e-01 1.55093551e-01 1.58419952e-01 1.61746368e-01 1.65072769e-01 1.68399170e-01 1.71725571e-01 1.75051972e-01 1.78378373e-01 1.81704774e-01 1.85031191e-01 1.88357592e-01 1.91683993e-01 1.95010394e-01 1.98336795e-01 2.01663196e-01 2.04989612e-01 2.08316013e-01 2.11642414e-01 2.14968815e-01 2.18295217e-01 2.21621618e-01 2.24948019e-01 2.28274435e-01 2.31600836e-01 2.34927237e-01 2.38253638e-01 2.41580039e-01 2.44906440e-01 2.48232841e-01 2.51559258e-01 2.54885644e-01 2.58212060e-01 2.61538476e-01 2.64864862e-01 2.68191278e-01 2.71517664e-01 2.74844080e-01 2.78170466e-01 2.81496882e-01 2.84823298e-01 2.88149685e-01 2.91476101e-01 2.94802487e-01 2.98128903e-01 3.01455289e-01 3.04781705e-01 3.08108121e-01 3.11434507e-01 3.14760923e-01 3.18087310e-01 3.21413726e-01 3.24740112e-01 3.28066528e-01 3.31392944e-01 3.34719330e-01 3.38045746e-01 3.41372132e-01 3.44698548e-01 3.48024935e-01 3.51351351e-01 3.54677767e-01 3.58004153e-01 3.61330569e-01 3.64656955e-01 3.67983371e-01 3.71309757e-01 3.74636173e-01 3.77962589e-01 3.81288975e-01 3.84615391e-01 3.87941778e-01 3.91268194e-01 3.94594580e-01 3.97920996e-01 4.01247412e-01 4.04573798e-01 4.07900214e-01 4.11226600e-01 4.14553016e-01 4.17879432e-01 4.21205819e-01 4.24532235e-01 4.27858621e-01 4.31185037e-01 4.34511423e-01 4.37837839e-01 4.41164255e-01 4.44490641e-01 4.47817057e-01 4.51143444e-01 4.54469860e-01 4.57796246e-01 4.61122662e-01 4.64449078e-01 4.67775464e-01 4.71101880e-01 4.74428266e-01 4.77754682e-01 4.81081069e-01 4.84407485e-01 4.87733901e-01 4.91060287e-01 4.94386703e-01 4.97713089e-01 5.01039505e-01 5.04365921e-01 5.07692337e-01 5.11018693e-01 5.14345109e-01 5.17671525e-01 5.20997941e-01 5.24324298e-01 5.27650714e-01 5.30977130e-01 5.34303546e-01 5.37629962e-01 5.40956318e-01 5.44282734e-01 5.47609150e-01 5.50935566e-01 5.54261982e-01 5.57588339e-01 5.60914755e-01 5.64241171e-01 5.67567587e-01 5.70893943e-01 5.74220359e-01 5.77546775e-01 5.80873191e-01 5.84199607e-01 5.87525964e-01 5.90852380e-01 5.94178796e-01 5.97505212e-01 6.00831628e-01 6.04157984e-01 6.07484400e-01 6.10810816e-01 6.14137232e-01 6.17463589e-01 6.20790005e-01 6.24116421e-01 6.27442837e-01 6.30769253e-01 6.34095609e-01 6.37422025e-01 6.40748441e-01 6.44074857e-01 6.47401273e-01 6.50727630e-01 6.54054046e-01 6.57380462e-01 6.60706878e-01 6.64033294e-01 6.67359650e-01 6.70686066e-01 6.74012482e-01 6.77338898e-01 6.80665255e-01 6.83991671e-01 6.87318087e-01 6.90644503e-01 6.93970919e-01 6.97297275e-01 7.00623691e-01 7.03950107e-01 7.07276523e-01 7.10602939e-01 7.13929296e-01 7.17255712e-01 7.20582128e-01 7.23908544e-01 7.27234900e-01 7.30561316e-01 7.33887732e-01 7.37214148e-01 7.40540564e-01 7.43866920e-01 7.47193336e-01 7.50519753e-01 7.53846169e-01 7.57172585e-01 7.60498941e-01 7.63825357e-01 7.67151773e-01 7.70478189e-01 7.73804545e-01 7.77130961e-01 7.80457377e-01 7.83783793e-01 7.87110209e-01 7.90436566e-01 7.93762982e-01 7.97089398e-01 8.00415814e-01 8.03742230e-01 8.07068586e-01 8.10395002e-01 8.13721418e-01 8.17047834e-01 8.20374191e-01 8.23700607e-01 8.27027023e-01 8.30353439e-01 8.33679855e-01 8.37006211e-01 8.40332627e-01 8.43659043e-01 8.46985459e-01 8.50311875e-01 8.53638232e-01 8.56964648e-01 8.60291064e-01 8.63617480e-01 8.66943896e-01 8.70270252e-01 8.73596668e-01 8.76923084e-01 8.80249500e-01 8.83575857e-01 8.86902273e-01 8.90228689e-01 8.93555105e-01 8.96881521e-01 9.00207877e-01 9.03534293e-01 9.06860709e-01 9.10187125e-01 9.13513541e-01 9.16839898e-01 9.20166314e-01 9.23492730e-01 9.26819146e-01 9.30145502e-01 9.33471918e-01 9.36798334e-01 9.40124750e-01 9.43451166e-01 9.46777523e-01 9.50103939e-01 9.53430355e-01 9.56756771e-01 9.60083187e-01 9.63409543e-01 9.66735959e-01 9.70062375e-01 9.73388791e-01 9.76715147e-01 9.80041564e-01 9.83367980e-01 9.86694396e-01 9.90020812e-01 9.93347168e-01 9.96673584e-01 1.00000000e+00 
            </Histogram>
            <HistogramBinning NBins="301">
              2.54865110e-01 2.54965097e-01 5.59543848e-01 9.12729561e-01 1.17742777e+00 1.32552195e+00 1.45231867e+00 1.51292634e+00 1.61141336e+00 1.71965528e+00 1.86779666e+00 1.98687720e+00 2.04763365e+00 2.08842015e+00 2.14758062e+00 2.21793842e+00 2.29844356e+00 2.32947826e+00 2.35090017e+00 2.39209867e+00 2.45370913e+00 2.49741220e+00 2.55165005e+00 2.57106924e+00 2.60620451e+00 2.65049529e+00 2.67811513e+00 2.72369862e+00 2.74890161e+00 2.77881145e+00 2.81768680e+00 2.84727573e+00 2.86711860e+00 2.90423870e+00 2.92545247e+00 2.94955969e+00 2.97697830e+00 3.00071716e+00 3.03447270e+00 3.05570769e+00 3.09985495e+00 3.11372876e+00 3.16040993e+00 3.18331361e+00 3.21791720e+00 3.25485945e+00 3.29049993e+00 3.30247569e+00 3.32291365e+00 3.33716393e+00 3.36083293e+00 3.39249635e+00 3.41521072e+00 3.43030548e+00 3.46590328e+00 3.48337340e+00 3.51133204e+00 3.53298807e+00 3.55237317e+00 3.56484222e+00 3.57953501e+00 3.59655094e+00 3.61782551e+00 3.63756347e+00 3.65255499e+00 3.68162608e+00 3.70085120e+00 3.72348881e+00 3.74367380e+00 3.76362610e+00 3.78983688e+00 3.80919361e+00 3.82244825e+00 3.84675550e+00 3.87112379e+00 3.88830113e+00 3.89905882e+00 3.91764021e+00 3.93762207e+00 3.96466398e+00 3.98204756e+00 3.99546289e+00 4.01198673e+00 4.02920532e+00 4.04109287e+00 4.06071901e+00 4.08149099e+00 4.09429550e+00 4.10415316e+00 4.11145210e+00 4.13244820e+00 4.15989161e+00 4.17106247e+00 4.18671417e+00 4.21952724e+00 4.23750305e+00 4.25768614e+00 4.27566862e+00 4.29641342e+00 4.30834150e+00 4.32153320e+00 4.33392382e+00 4.34548378e+00 4.36580992e+00 4.37417269e+00 4.38742590e+00 4.40451002e+00 4.42490530e+00 4.43782663e+00 4.44593382e+00 4.46107674e+00 4.47778654e+00 4.48799658e+00 4.49922419e+00 4.50879526e+00 4.52266979e+00 4.53801012e+00 4.55025148e+00 4.56137371e+00 4.57089996e+00 4.58946085e+00 4.60219717e+00 4.61807919e+00 4.63404655e+00 4.65124989e+00 4.66161537e+00 4.67634869e+00 4.69299030e+00 4.70616817e+00 4.71226692e+00 4.72667170e+00 4.73791218e+00 4.75064182e+00 4.76406097e+00 4.77211618e+00 4.77939320e+00 4.78994846e+00 4.79793549e+00 4.80831099e+00 4.82385206e+00 4.83580542e+00 4.84779835e+00 4.86514091e+00 4.87455034e+00 4.88348961e+00 4.88799810e+00 4.89787912e+00 4.90562582e+00 4.91480398e+00 4.92740774e+00 4.93714905e+00 4.94368601e+00 4.95486116e+00 4.96646261e+00 4.97729015e+00 4.99147940e+00 4.99959993e+00 5.00718260e+00 5.01501846e+00 5.02590561e+00 5.03784609e+00 5.04928589e+00 5.06045818e+00 5.07706785e+00 5.08554316e+00 5.10157585e+00 5.11562347e+00 5.12270069e+00 5.13202524e+00 5.14987898e+00 5.16104698e+00 5.17440176e+00 5.18647385e+00 5.19693899e+00 5.21691799e+00 5.23776817e+00 5.25551176e+00 5.27500248e+00 5.28260422e+00 5.29256153e+00 5.30706882e+00 5.32297802e+00 5.34323359e+00 5.35476589e+00 5.37339306e+00 5.38965511e+00 5.41143560e+00 5.42611217e+00 5.43770266e+00 5.45218706e+00 5.46539164e+00 5.47209120e+00 5.48896313e+00 5.50012493e+00 5.51252174e+00 5.53441429e+00 5.55368757e+00 5.57247734e+00 5.59115982e+00 5.60642529e+00 5.62244558e+00 5.63985538e+00 5.66160011e+00 5.68331099e+00 5.70618057e+00 5.72867441e+00 5.74657726e+00 5.77142239e+00 5.78660393e+00 5.80065012e+00 5.82477951e+00 5.84163761e+00 5.86035728e+00 5.88393879e+00 5.91043377e+00 5.91981936e+00 5.95429516e+00 5.97322273e+00 5.98865128e+00 6.00697136e+00 6.03746176e+00 6.05676651e+00 6.09167767e+00 6.12337303e+00 6.14297104e+00 6.15927982e+00 6.18547821e+00 6.20632553e+00 6.23854733e+00 6.25645971e+00 6.27926826e+00 6.30420399e+00 6.33043909e+00 6.35814381e+00 6.38393450e+00 6.41088867e+00 6.42250061e+00 6.44269943e+00 6.46708012e+00 6.48628616e+00 6.52897453e+00 6.55233574e+00 6.57560968e+00 6.58938932e+00 6.62154484e+00 6.64237595e+00 6.67873144e+00 6.69872952e+00 6.72912264e+00 6.75402164e+00 6.79070950e+00 6.82588148e+00 6.85669231e+00 6.87987471e+00 6.91533852e+00 6.93714333e+00 6.97115135e+00 7.00715160e+00 7.03791332e+00 7.09940529e+00 7.14122343e+00 7.18231678e+00 7.23644447e+00 7.27549791e+00 7.34580851e+00 7.37540150e+00 7.39301491e+00 7.43524837e+00 7.47002697e+00 7.50663805e+00 7.55820751e+00 7.60459900e+00 7.66706848e+00 7.71977043e+00 7.76249886e+00 7.83442307e+00 7.88029051e+00 7.92461586e+00 7.98737860e+00 8.03443146e+00 8.07261372e+00 8.09871578e+00 8.14472389e+00 8.17540359e+00 8.19677639e+00 8.25250244e+00 8.29734421e+00 8.35400581e+00 8.42098045e+00 8.51859283e+00 8.55175209e+00 8.63504028e+00 8.66422844e+00 8.73955536e+00 8.81748772e+00 8.91051865e+00 8.96740150e+00 9.08765221e+00 9.19400406e+00 9.32876587e+00 9.51499939e+00 9.77704048e+00 
            </HistogramBinning>
          </PDF>
        </CumulativePDF_cls0>
      </Variable>
    </Transform>
  </Transformations>
  <MVAPdfs/>
  <Weights>
    <Layout NumberLayers="2">
      <Layer Connection="FULL" Nodes="3" ActivationFunction="T" OutputMode="1"/>
      <Layer Connection="FULL" Nodes="6" ActivationFunction="L" OutputMode="1"/>
    </Layout>
    <Synapses InputSize="7" OutputSize="6" NumberSynapses="39">
      2.4256838170070988e-01 -1.2383367563160655e-01 -1.9029246228212623e-01 -3.3679536380298064e-01 -9.4998367107983345e-02 7.6465675253596085e-02 2.0348972537343554e-01 -1.3813697893067461e-01 1.4180045707076731e-02 5.1125523263013328e-01 -5.1602918857857383e-01 -1.2343984816831576e-01 2.6352127480199070e+00 1.4167086622498670e-01 -1.3573376201572742e+00 -1.1525676738448370e-01 -6.5045821810859694e-01 8.9955793357542779e-02 -4.4930160984460343e+00 8.7807217198135401e+00 1.7231473556590710e-01 1.5771780146834384e+00 -8.8535459688797369e-01 -8.6829423732745895e-02 2.4625323779104420e+00 6.8776206782897900e+00 -9.7218316544020433e-01 3.9231825388327675e+00 5.1185248664278493e-01 2.8087099416339938e+00 3.4113298352026908e+00 1.5105664468647555e+01 3.3205632269383849e+00 -8.6870803281088771e-01 -3.3075270852990518e-01 -6.8357512946402088e-01 -5.3795538314516966e-01 -5.1432053440794947e+00 -1.0143276269726229e+00 
    </Synapses>
  </Weights>
</MethodSetup>
