<?xml version="1.0"?>
<MethodSetup Method="DNN::DNN">
  <GeneralInfo>
    <Info name="TMVA Release" value="4.2.1 [262657]"/>
    <Info name="ROOT Release" value="6.07/07 [395015]"/>
    <Info name="Creator" value="testuser"/>
    <Info name="Date" value="Fri Jul  1 18:01:37 2016"/>
    <Info name="Host" value="Darwin Abhinavs-MBP.lan 15.5.0 Darwin Kernel Version 15.5.0: Tue Apr 19 18:36:36 PDT 2016; root:xnu-3248.50.21~8/RELEASE_X86_64 x86_64"/>
    <Info name="Dir" value="/Users/testuser/gsoc-2016/notebooks"/>
    <Info name="Training events" value="3000"/>
    <Info name="TrainingTime" value="6.35093031e+01"/>
    <Info name="AnalysisType" value="Regression"/>
  </GeneralInfo>
  <Options>
    <Option name="V" modified="Yes">True</Option>
    <Option name="VerbosityLevel" modified="No">Verbose</Option>
    <Option name="VarTransform" modified="Yes">G</Option>
    <Option name="H" modified="Yes">False</Option>
    <Option name="CreateMVAPdfs" modified="No">False</Option>
    <Option name="IgnoreNegWeightsInTraining" modified="No">False</Option>
    <Option name="Layout" modified="Yes">TANH|3,LINEAR</Option>
    <Option name="ErrorStrategy" modified="Yes">SUMOFSQUARES</Option>
    <Option name="WeightInitialization" modified="Yes">XAVIERUNIFORM</Option>
    <Option name="TrainingStrategy" modified="Yes">LearningRate=1e-1,Momentum=0.0,Repetitions=1,ConvergenceSteps=300,BatchSize=20,TestRepetitions=15,WeightDecay=0.001,Regularization=NONE,DropConfig=0.0+0.5+0.5+0.5,DropRepetitions=1,Multithreading=True|LearningRate=1e-2,Momentum=0.5,Repetitions=1,ConvergenceSteps=300,BatchSize=30,TestRepetitions=7,WeightDecay=0.001,Regularization=L2,Multithreading=True,DropConfig=0.0+0.1+0.1+0.1,DropRepetitions=1</Option>
    <Option name="SignalWeightsSum" modified="No">1.000000e+03</Option>
    <Option name="BackgroundWeightsSum" modified="No">1.000000e+03</Option>
  </Options>
  <Variables NVar="6">
    <Variable VarIndex="0" Expression="var0" Label="var0" Title="var0" Unit="" Internal="var0" Type="F" Min="4.33797203e-02" Max="9.99503899e+00"/>
    <Variable VarIndex="1" Expression="var1" Label="var1" Title="var1" Unit="" Internal="var1" Type="F" Min="9.94240399e-05" Max="4.99319744e+00"/>
    <Variable VarIndex="2" Expression="var2" Label="var2" Title="var2" Unit="" Internal="var2" Type="F" Min="5.31126410e-02" Max="4.99916363e+00"/>
    <Variable VarIndex="3" Expression="var0-var1" Label="var3" Title="var3" Unit="" Internal="var3" Type="F" Min="-9.52973247e-01" Max="9.96152687e+00"/>
    <Variable VarIndex="4" Expression="var0*var2" Label="var4" Title="var4" Unit="" Internal="var4" Type="F" Min="1.60597309e-01" Max="4.82199593e+01"/>
    <Variable VarIndex="5" Expression="var1+var2" Label="var5" Title="var5" Unit="" Internal="var5" Type="F" Min="2.54965097e-01" Max="9.77704048e+00"/>
  </Variables>
  <Spectators NSpec="0"/>
  <Classes NClass="1">
    <Class Name="Regression" Index="0"/>
  </Classes>
  <Targets NTrgt="6">
    <Target TargetIndex="0" Expression="var0" Label="var0" Title="F" Unit="" Internal="var0" Type="F" Min="4.33797203e-02" Max="9.99503899e+00"/>
    <Target TargetIndex="1" Expression="var1" Label="var1" Title="F" Unit="" Internal="var1" Type="F" Min="9.94240399e-05" Max="4.99319744e+00"/>
    <Target TargetIndex="2" Expression="var2" Label="var2" Title="F" Unit="" Internal="var2" Type="F" Min="5.31126410e-02" Max="4.99916363e+00"/>
    <Target TargetIndex="3" Expression="var0-var1" Label="var3" Title="F" Unit="" Internal="var3" Type="F" Min="-9.52973247e-01" Max="9.96152687e+00"/>
    <Target TargetIndex="4" Expression="var0*var2" Label="var4" Title="F" Unit="" Internal="var4" Type="F" Min="1.60597309e-01" Max="4.82199593e+01"/>
    <Target TargetIndex="5" Expression="var1+var2" Label="var5" Title="F" Unit="" Internal="var5" Type="F" Min="2.54965097e-01" Max="9.77704048e+00"/>
  </Targets>
  <Transformations NTransformations="1">
    <Transform Name="Gauss" FlatOrGauss="Gauss">
      <Selection>
        <Input NInputs="6">
          <Input Type="Variable" Label="var0" Expression="var0"/>
          <Input Type="Variable" Label="var1" Expression="var1"/>
          <Input Type="Variable" Label="var2" Expression="var2"/>
          <Input Type="Variable" Label="var3" Expression="var0-var1"/>
          <Input Type="Variable" Label="var4" Expression="var0*var2"/>
          <Input Type="Variable" Label="var5" Expression="var1+var2"/>
        </Input>
        <Output NOutputs="6">
          <Output Type="Variable" Label="var0" Expression="var0"/>
          <Output Type="Variable" Label="var1" Expression="var1"/>
          <Output Type="Variable" Label="var2" Expression="var2"/>
          <Output Type="Variable" Label="var3" Expression="var0-var1"/>
          <Output Type="Variable" Label="var4" Expression="var0*var2"/>
          <Output Type="Variable" Label="var5" Expression="var1+var2"/>
        </Output>
      </Selection>
      <Variable VarIndex="0">
        <CumulativePDF_cls0>
          <PDF Name="GaussTransform var0 cls0" MinNSmooth="0" MaxNSmooth="0" InterpolMethod="1" KDE_type="0" KDE_iter="1" KDE_border="1" KDE_finefactor="0.0000000000000000e+00">
            <Histogram Name="Cumulative_Var0_cls0_original" NBins="301" XMin="4.3279718607664108e-02" XMax="9.9950389862060547e+00" HasEquidistantBins="0">
              2.41164234e-03 5.40540554e-03 8.71101860e-03 1.20582124e-02 1.53846154e-02 1.87110193e-02 2.20374223e-02 2.53638253e-02 2.86902282e-02 3.20166312e-02 3.53430361e-02 3.86694372e-02 4.19958420e-02 4.53222468e-02 4.86486480e-02 5.19750528e-02 5.53014539e-02 5.86278588e-02 6.19542636e-02 6.52806684e-02 6.86070696e-02 7.19334707e-02 7.52598718e-02 7.85862803e-02 8.19126815e-02 8.52390826e-02 8.85654911e-02 9.18918923e-02 9.52182934e-02 9.85447019e-02 1.01871103e-01 1.05197504e-01 1.08523905e-01 1.11850314e-01 1.15176715e-01 1.18503116e-01 1.21829525e-01 1.25155926e-01 1.28482327e-01 1.31808728e-01 1.35135129e-01 1.38461545e-01 1.41787946e-01 1.45114347e-01 1.48440748e-01 1.51767150e-01 1.55093551e-01 1.58419952e-01 1.61746368e-01 1.65072769e-01 1.68399170e-01 1.71725571e-01 1.75051972e-01 1.78378373e-01 1.81704774e-01 1.85031191e-01 1.88357592e-01 1.91683993e-01 1.95010394e-01 1.98336795e-01 2.01663196e-01 2.04989612e-01 2.08316013e-01 2.11642414e-01 2.14968815e-01 2.18295217e-01 2.21621618e-01 2.24948019e-01 2.28274435e-01 2.31600836e-01 2.34927237e-01 2.38253638e-01 2.41580039e-01 2.44906440e-01 2.48232841e-01 2.51559258e-01 2.54885644e-01 2.58212060e-01 2.61538476e-01 2.64864862e-01 2.68191278e-01 2.71517664e-01 2.74844080e-01 2.78170466e-01 2.81496882e-01 2.84823298e-01 2.88149685e-01 2.91476101e-01 2.94802487e-01 2.98128903e-01 3.01455289e-01 3.04781705e-01 3.08108121e-01 3.11434507e-01 3.14760923e-01 3.18087310e-01 3.21413726e-01 3.24740112e-01 3.28066528e-01 3.31392944e-01 3.34719330e-01 3.38045746e-01 3.41372132e-01 3.44698548e-01 3.48024935e-01 3.51351351e-01 3.54677767e-01 3.58004153e-01 3.61330569e-01 3.64656955e-01 3.67983371e-01 3.71309757e-01 3.74636173e-01 3.77962589e-01 3.81288975e-01 3.84615391e-01 3.87941778e-01 3.91268194e-01 3.94594580e-01 3.97920996e-01 4.01247412e-01 4.04573798e-01 4.07900214e-01 4.11226600e-01 4.14553016e-01 4.17879432e-01 4.21205819e-01 4.24532235e-01 4.27858621e-01 4.31185037e-01 4.34511423e-01 4.37837839e-01 4.41164255e-01 4.44490641e-01 4.47817057e-01 4.51143444e-01 4.54469860e-01 4.57796246e-01 4.61122662e-01 4.64449078e-01 4.67775464e-01 4.71101880e-01 4.74428266e-01 4.77754682e-01 4.81081069e-01 4.84407485e-01 4.87733901e-01 4.91060287e-01 4.94386703e-01 4.97713089e-01 5.01039505e-01 5.04365921e-01 5.07692337e-01 5.11018693e-01 5.14345109e-01 5.17671525e-01 5.20997941e-01 5.24324298e-01 5.27650714e-01 5.30977130e-01 5.34303546e-01 5.37629962e-01 5.40956318e-01 5.44282734e-01 5.47609150e-01 5.50935566e-01 5.54261982e-01 5.57588339e-01 5.60914755e-01 5.64241171e-01 5.67567587e-01 5.70893943e-01 5.74220359e-01 5.77546775e-01 5.80873191e-01 5.84199607e-01 5.87525964e-01 5.90852380e-01 5.94178796e-01 5.97505212e-01 6.00831628e-01 6.04157984e-01 6.07484400e-01 6.10810816e-01 6.14137232e-01 6.17463589e-01 6.20790005e-01 6.24116421e-01 6.27442837e-01 6.30769253e-01 6.34095609e-01 6.37422025e-01 6.40748441e-01 6.44074857e-01 6.47401273e-01 6.50727630e-01 6.54054046e-01 6.57380462e-01 6.60706878e-01 6.64033294e-01 6.67359650e-01 6.70686066e-01 6.74012482e-01 6.77338898e-01 6.80665255e-01 6.83991671e-01 6.87318087e-01 6.90644503e-01 6.93970919e-01 6.97297275e-01 7.00623691e-01 7.03950107e-01 7.07276523e-01 7.10602939e-01 7.13929296e-01 7.17255712e-01 7.20582128e-01 7.23908544e-01 7.27234900e-01 7.30561316e-01 7.33887732e-01 7.37214148e-01 7.40540564e-01 7.43866920e-01 7.47193336e-01 7.50519753e-01 7.53846169e-01 7.57172585e-01 7.60498941e-01 7.63825357e-01 7.67151773e-01 7.70478189e-01 7.73804545e-01 7.77130961e-01 7.80457377e-01 7.83783793e-01 7.87110209e-01 7.90436566e-01 7.93762982e-01 7.97089398e-01 8.00415814e-01 8.03742230e-01 8.07068586e-01 8.10395002e-01 8.13721418e-01 8.17047834e-01 8.20374191e-01 8.23700607e-01 8.27027023e-01 8.30353439e-01 8.33679855e-01 8.37006211e-01 8.40332627e-01 8.43659043e-01 8.46985459e-01 8.50311875e-01 8.53638232e-01 8.56964648e-01 8.60291064e-01 8.63617480e-01 8.66943896e-01 8.70270252e-01 8.73596668e-01 8.76923084e-01 8.80249500e-01 8.83575857e-01 8.86902273e-01 8.90228689e-01 8.93555105e-01 8.96881521e-01 9.00207877e-01 9.03534293e-01 9.06860709e-01 9.10187125e-01 9.13513541e-01 9.16839898e-01 9.20166314e-01 9.23492730e-01 9.26819146e-01 9.30145502e-01 9.33471918e-01 9.36798334e-01 9.40124750e-01 9.43451166e-01 9.46777523e-01 9.50103939e-01 9.53430355e-01 9.56756771e-01 9.60083187e-01 9.63409543e-01 9.66735959e-01 9.70062375e-01 9.73388791e-01 9.76715147e-01 9.80041564e-01 9.83367980e-01 9.86694396e-01 9.90020812e-01 9.93347168e-01 9.96673584e-01 1.00000000e+00 
            </Histogram>
            <HistogramBinning NBins="301">
              4.32797186e-02 4.33797203e-02 1.76207051e-01 3.06715012e-01 3.85202855e-01 4.34827983e-01 4.66950417e-01 4.99061376e-01 5.48435271e-01 5.82806289e-01 6.05315924e-01 6.47740901e-01 6.73053324e-01 7.09897935e-01 7.43645489e-01 7.62114882e-01 7.73689806e-01 7.99394071e-01 8.19585741e-01 8.34050894e-01 8.57026994e-01 8.89231086e-01 9.16515172e-01 9.30161119e-01 9.45737898e-01 9.56091225e-01 9.70603466e-01 9.89961207e-01 1.01298690e+00 1.03862810e+00 1.05160785e+00 1.06143379e+00 1.07118332e+00 1.08159113e+00 1.09384429e+00 1.10478616e+00 1.12301660e+00 1.14060700e+00 1.15610802e+00 1.18191397e+00 1.19339263e+00 1.20249057e+00 1.21326435e+00 1.22568667e+00 1.23961961e+00 1.25006378e+00 1.26240957e+00 1.28787649e+00 1.30225658e+00 1.31900811e+00 1.33037913e+00 1.33889556e+00 1.34804058e+00 1.36449063e+00 1.37510729e+00 1.38812697e+00 1.40429890e+00 1.41829991e+00 1.43477404e+00 1.44688535e+00 1.45928860e+00 1.46698964e+00 1.48239362e+00 1.49663746e+00 1.50609148e+00 1.51538002e+00 1.52346826e+00 1.53034770e+00 1.54403830e+00 1.55687904e+00 1.57228565e+00 1.58428371e+00 1.59213805e+00 1.60011256e+00 1.61165273e+00 1.62150455e+00 1.63096070e+00 1.64066029e+00 1.65798569e+00 1.67002952e+00 1.68220496e+00 1.69201279e+00 1.70359468e+00 1.71544909e+00 1.73070490e+00 1.74894524e+00 1.76616609e+00 1.78264105e+00 1.79278970e+00 1.80167103e+00 1.81509054e+00 1.82337296e+00 1.83535278e+00 1.84958661e+00 1.86435723e+00 1.87143242e+00 1.88738608e+00 1.89821303e+00 1.90831256e+00 1.92227554e+00 1.93043542e+00 1.94088280e+00 1.95944560e+00 1.97669709e+00 1.98400915e+00 1.99168301e+00 2.00041318e+00 2.01336884e+00 2.02396345e+00 2.03217483e+00 2.03785443e+00 2.04656529e+00 2.05363536e+00 2.06209493e+00 2.07128358e+00 2.08504510e+00 2.09367061e+00 2.10603881e+00 2.11977959e+00 2.13292480e+00 2.14600348e+00 2.15666533e+00 2.17205286e+00 2.18740630e+00 2.20084167e+00 2.21734953e+00 2.23314500e+00 2.24882674e+00 2.26920247e+00 2.27977991e+00 2.29917645e+00 2.30838346e+00 2.32038260e+00 2.32594705e+00 2.33181882e+00 2.34516478e+00 2.36054277e+00 2.37045336e+00 2.38071632e+00 2.39065099e+00 2.40631819e+00 2.42262936e+00 2.43442678e+00 2.45283723e+00 2.47295737e+00 2.49777389e+00 2.51023173e+00 2.53116870e+00 2.54623675e+00 2.56052685e+00 2.57532787e+00 2.58171177e+00 2.59339809e+00 2.60355020e+00 2.60998368e+00 2.62478471e+00 2.64368987e+00 2.65897369e+00 2.67452168e+00 2.70096707e+00 2.71600246e+00 2.75069761e+00 2.76690531e+00 2.78571606e+00 2.80790329e+00 2.81952763e+00 2.82580113e+00 2.84329581e+00 2.86447263e+00 2.88634777e+00 2.90216231e+00 2.91713285e+00 2.94402027e+00 2.96233535e+00 2.98942924e+00 3.01534152e+00 3.03553534e+00 3.04593468e+00 3.06281233e+00 3.07857132e+00 3.10030198e+00 3.11383843e+00 3.13037419e+00 3.14516521e+00 3.16223717e+00 3.18239474e+00 3.20090151e+00 3.22671008e+00 3.25079393e+00 3.27293611e+00 3.28419280e+00 3.30434227e+00 3.32171059e+00 3.34334683e+00 3.36299920e+00 3.37894845e+00 3.38890624e+00 3.41691923e+00 3.43917370e+00 3.46535611e+00 3.47840405e+00 3.50126362e+00 3.53258252e+00 3.56001043e+00 3.58077168e+00 3.59028888e+00 3.61702132e+00 3.63836122e+00 3.64972258e+00 3.67663217e+00 3.70369649e+00 3.72701669e+00 3.76247668e+00 3.79790807e+00 3.82716489e+00 3.85220075e+00 3.89289618e+00 3.91252112e+00 3.93642664e+00 3.96781135e+00 4.01287603e+00 4.05117035e+00 4.07783413e+00 4.10562229e+00 4.13405085e+00 4.14655352e+00 4.18807745e+00 4.23823118e+00 4.26406050e+00 4.29652071e+00 4.31963778e+00 4.34901857e+00 4.37155247e+00 4.40594625e+00 4.42770624e+00 4.44577360e+00 4.46574163e+00 4.48846579e+00 4.52389479e+00 4.56031704e+00 4.58169031e+00 4.61195707e+00 4.62704706e+00 4.65537786e+00 4.67293024e+00 4.69191933e+00 4.74024534e+00 4.76523113e+00 4.79189348e+00 4.83323526e+00 4.85991287e+00 4.89613867e+00 4.93424702e+00 4.95461559e+00 5.00346231e+00 5.05071545e+00 5.11649275e+00 5.18724298e+00 5.25111485e+00 5.32965517e+00 5.38057280e+00 5.44785690e+00 5.54768801e+00 5.64093542e+00 5.69949341e+00 5.79039955e+00 5.85642672e+00 5.92683363e+00 5.97082853e+00 6.07027721e+00 6.14077663e+00 6.18285179e+00 6.28624058e+00 6.35248280e+00 6.45724010e+00 6.53744459e+00 6.62148142e+00 6.69965982e+00 6.79827356e+00 6.90222645e+00 6.99502039e+00 7.15056133e+00 7.20853662e+00 7.33597994e+00 7.45433140e+00 7.56031704e+00 7.70948601e+00 7.83255672e+00 7.95744991e+00 8.08010674e+00 8.19987392e+00 8.35970211e+00 8.47317028e+00 8.57989979e+00 8.69261169e+00 8.89040661e+00 9.11319351e+00 9.24465179e+00 9.55857944e+00 9.77470207e+00 9.91952515e+00 9.99503899e+00 
            </HistogramBinning>
          </PDF>
        </CumulativePDF_cls0>
      </Variable>
      <Variable VarIndex="1">
        <CumulativePDF_cls0>
          <PDF Name="GaussTransform var1 cls0" MinNSmooth="0" MaxNSmooth="0" InterpolMethod="1" KDE_type="0" KDE_iter="1" KDE_border="1" KDE_finefactor="0.0000000000000000e+00">
            <Histogram Name="Cumulative_Var1_cls0_original" NBins="301" XMin="-5.7595752878114581e-07" XMax="4.9931974411010742e+00" HasEquidistantBins="0">
              2.41164234e-03 5.40540554e-03 8.71101860e-03 1.20582124e-02 1.53846154e-02 1.87110193e-02 2.20374223e-02 2.53638253e-02 2.86902282e-02 3.20166312e-02 3.53430361e-02 3.86694372e-02 4.19958420e-02 4.53222468e-02 4.86486480e-02 5.19750528e-02 5.53014539e-02 5.86278588e-02 6.19542636e-02 6.52806684e-02 6.86070696e-02 7.19334707e-02 7.52598718e-02 7.85862803e-02 8.19126815e-02 8.52390826e-02 8.85654911e-02 9.18918923e-02 9.52182934e-02 9.85447019e-02 1.01871103e-01 1.05197504e-01 1.08523905e-01 1.11850314e-01 1.15176715e-01 1.18503116e-01 1.21829525e-01 1.25155926e-01 1.28482327e-01 1.31808728e-01 1.35135129e-01 1.38461545e-01 1.41787946e-01 1.45114347e-01 1.48440748e-01 1.51767150e-01 1.55093551e-01 1.58419952e-01 1.61746368e-01 1.65072769e-01 1.68399170e-01 1.71725571e-01 1.75051972e-01 1.78378373e-01 1.81704774e-01 1.85031191e-01 1.88357592e-01 1.91683993e-01 1.95010394e-01 1.98336795e-01 2.01663196e-01 2.04989612e-01 2.08316013e-01 2.11642414e-01 2.14968815e-01 2.18295217e-01 2.21621618e-01 2.24948019e-01 2.28274435e-01 2.31600836e-01 2.34927237e-01 2.38253638e-01 2.41580039e-01 2.44906440e-01 2.48232841e-01 2.51559258e-01 2.54885644e-01 2.58212060e-01 2.61538476e-01 2.64864862e-01 2.68191278e-01 2.71517664e-01 2.74844080e-01 2.78170466e-01 2.81496882e-01 2.84823298e-01 2.88149685e-01 2.91476101e-01 2.94802487e-01 2.98128903e-01 3.01455289e-01 3.04781705e-01 3.08108121e-01 3.11434507e-01 3.14760923e-01 3.18087310e-01 3.21413726e-01 3.24740112e-01 3.28066528e-01 3.31392944e-01 3.34719330e-01 3.38045746e-01 3.41372132e-01 3.44698548e-01 3.48024935e-01 3.51351351e-01 3.54677767e-01 3.58004153e-01 3.61330569e-01 3.64656955e-01 3.67983371e-01 3.71309757e-01 3.74636173e-01 3.77962589e-01 3.81288975e-01 3.84615391e-01 3.87941778e-01 3.91268194e-01 3.94594580e-01 3.97920996e-01 4.01247412e-01 4.04573798e-01 4.07900214e-01 4.11226600e-01 4.14553016e-01 4.17879432e-01 4.21205819e-01 4.24532235e-01 4.27858621e-01 4.31185037e-01 4.34511423e-01 4.37837839e-01 4.41164255e-01 4.44490641e-01 4.47817057e-01 4.51143444e-01 4.54469860e-01 4.57796246e-01 4.61122662e-01 4.64449078e-01 4.67775464e-01 4.71101880e-01 4.74428266e-01 4.77754682e-01 4.81081069e-01 4.84407485e-01 4.87733901e-01 4.91060287e-01 4.94386703e-01 4.97713089e-01 5.01039505e-01 5.04365921e-01 5.07692337e-01 5.11018693e-01 5.14345109e-01 5.17671525e-01 5.20997941e-01 5.24324298e-01 5.27650714e-01 5.30977130e-01 5.34303546e-01 5.37629962e-01 5.40956318e-01 5.44282734e-01 5.47609150e-01 5.50935566e-01 5.54261982e-01 5.57588339e-01 5.60914755e-01 5.64241171e-01 5.67567587e-01 5.70893943e-01 5.74220359e-01 5.77546775e-01 5.80873191e-01 5.84199607e-01 5.87525964e-01 5.90852380e-01 5.94178796e-01 5.97505212e-01 6.00831628e-01 6.04157984e-01 6.07484400e-01 6.10810816e-01 6.14137232e-01 6.17463589e-01 6.20790005e-01 6.24116421e-01 6.27442837e-01 6.30769253e-01 6.34095609e-01 6.37422025e-01 6.40748441e-01 6.44074857e-01 6.47401273e-01 6.50727630e-01 6.54054046e-01 6.57380462e-01 6.60706878e-01 6.64033294e-01 6.67359650e-01 6.70686066e-01 6.74012482e-01 6.77338898e-01 6.80665255e-01 6.83991671e-01 6.87318087e-01 6.90644503e-01 6.93970919e-01 6.97297275e-01 7.00623691e-01 7.03950107e-01 7.07276523e-01 7.10602939e-01 7.13929296e-01 7.17255712e-01 7.20582128e-01 7.23908544e-01 7.27234900e-01 7.30561316e-01 7.33887732e-01 7.37214148e-01 7.40540564e-01 7.43866920e-01 7.47193336e-01 7.50519753e-01 7.53846169e-01 7.57172585e-01 7.60498941e-01 7.63825357e-01 7.67151773e-01 7.70478189e-01 7.73804545e-01 7.77130961e-01 7.80457377e-01 7.83783793e-01 7.87110209e-01 7.90436566e-01 7.93762982e-01 7.97089398e-01 8.00415814e-01 8.03742230e-01 8.07068586e-01 8.10395002e-01 8.13721418e-01 8.17047834e-01 8.20374191e-01 8.23700607e-01 8.27027023e-01 8.30353439e-01 8.33679855e-01 8.37006211e-01 8.40332627e-01 8.43659043e-01 8.46985459e-01 8.50311875e-01 8.53638232e-01 8.56964648e-01 8.60291064e-01 8.63617480e-01 8.66943896e-01 8.70270252e-01 8.73596668e-01 8.76923084e-01 8.80249500e-01 8.83575857e-01 8.86902273e-01 8.90228689e-01 8.93555105e-01 8.96881521e-01 9.00207877e-01 9.03534293e-01 9.06860709e-01 9.10187125e-01 9.13513541e-01 9.16839898e-01 9.20166314e-01 9.23492730e-01 9.26819146e-01 9.30145502e-01 9.33471918e-01 9.36798334e-01 9.40124750e-01 9.43451166e-01 9.46777523e-01 9.50103939e-01 9.53430355e-01 9.56756771e-01 9.60083187e-01 9.63409543e-01 9.66735959e-01 9.70062375e-01 9.73388791e-01 9.76715147e-01 9.80041564e-01 9.83367980e-01 9.86694396e-01 9.90020812e-01 9.93347168e-01 9.96673584e-01 1.00000000e+00 
            </Histogram>
            <HistogramBinning NBins="301">
              -5.75957529e-07 9.94240399e-05 9.04465327e-04 2.64669931e-03 5.39930724e-03 7.44229835e-03 9.37797036e-03 1.10347951e-02 1.23531977e-02 1.36871058e-02 1.48162376e-02 1.75507888e-02 1.92310996e-02 2.04066411e-02 2.14027688e-02 2.36739442e-02 2.51493976e-02 2.86257993e-02 2.99658775e-02 3.22868004e-02 3.43689583e-02 3.58176380e-02 3.73421907e-02 3.93569022e-02 4.22704518e-02 4.44770753e-02 4.60756086e-02 4.76089977e-02 4.99305837e-02 5.09828553e-02 5.30252717e-02 5.48999608e-02 5.66464253e-02 5.84975481e-02 5.96496128e-02 6.11468479e-02 6.31154478e-02 6.54245019e-02 6.67532459e-02 6.90749809e-02 7.32131675e-02 7.54530057e-02 7.70510584e-02 7.87134841e-02 8.06492865e-02 8.38654861e-02 8.71606469e-02 8.98813605e-02 9.17725116e-02 9.44623053e-02 9.75098908e-02 1.00504920e-01 1.02263764e-01 1.04359597e-01 1.06656879e-01 1.08931206e-01 1.11829869e-01 1.14584394e-01 1.17165789e-01 1.19074427e-01 1.21751249e-01 1.23626329e-01 1.26081377e-01 1.28028527e-01 1.30617529e-01 1.32231742e-01 1.34857103e-01 1.38071284e-01 1.40966058e-01 1.44559488e-01 1.46557689e-01 1.50647715e-01 1.53311446e-01 1.55542418e-01 1.57157212e-01 1.60685778e-01 1.63150743e-01 1.65850163e-01 1.68100685e-01 1.71401143e-01 1.73700169e-01 1.76855952e-01 1.79653227e-01 1.83438838e-01 1.87213019e-01 1.89654678e-01 1.91312835e-01 1.94276497e-01 1.97337046e-01 1.99712455e-01 2.04486802e-01 2.07525194e-01 2.14202732e-01 2.18410686e-01 2.20723525e-01 2.25134730e-01 2.27840990e-01 2.30287477e-01 2.34154359e-01 2.38831788e-01 2.40678087e-01 2.47656301e-01 2.50950009e-01 2.56059885e-01 2.59668767e-01 2.62789816e-01 2.66263932e-01 2.70407289e-01 2.74075508e-01 2.77593911e-01 2.80413538e-01 2.84853667e-01 2.91144878e-01 2.96483606e-01 3.00398320e-01 3.05187434e-01 3.13113242e-01 3.17340106e-01 3.21114719e-01 3.25142205e-01 3.31758350e-01 3.35048586e-01 3.38798463e-01 3.43306601e-01 3.49279344e-01 3.55299264e-01 3.58646125e-01 3.67182195e-01 3.73551756e-01 3.77430677e-01 3.85427952e-01 3.92353356e-01 3.97858113e-01 4.05266881e-01 4.09204006e-01 4.14402574e-01 4.23890859e-01 4.32134837e-01 4.39805597e-01 4.49664235e-01 4.57134843e-01 4.64228570e-01 4.75509703e-01 4.82826740e-01 4.90311176e-01 4.96596098e-01 5.02089322e-01 5.10601103e-01 5.24337053e-01 5.33221424e-01 5.41950822e-01 5.46756804e-01 5.50905108e-01 5.56596577e-01 5.67534268e-01 5.72210670e-01 5.82552195e-01 5.89937091e-01 5.98351061e-01 6.07907116e-01 6.22134507e-01 6.33724689e-01 6.45539641e-01 6.60410285e-01 6.71863079e-01 6.81720257e-01 6.91367567e-01 7.02957213e-01 7.16446280e-01 7.27244556e-01 7.34026790e-01 7.38293231e-01 7.60246694e-01 7.67303526e-01 7.75507987e-01 7.83860981e-01 7.97973275e-01 8.10281217e-01 8.25808823e-01 8.37350905e-01 8.52323592e-01 8.63724649e-01 8.75726402e-01 8.88799429e-01 8.99804950e-01 9.11078215e-01 9.24059749e-01 9.31214750e-01 9.43483889e-01 9.58049238e-01 9.69743431e-01 9.82943356e-01 9.93947387e-01 1.00281286e+00 1.01657569e+00 1.02819359e+00 1.05182254e+00 1.05940986e+00 1.06921065e+00 1.08424628e+00 1.10052061e+00 1.12553418e+00 1.13815105e+00 1.16205120e+00 1.18190801e+00 1.20681429e+00 1.22215950e+00 1.24423540e+00 1.26449704e+00 1.28007948e+00 1.30030680e+00 1.33091903e+00 1.35377777e+00 1.37364960e+00 1.38450444e+00 1.40598929e+00 1.43564999e+00 1.45625830e+00 1.48090720e+00 1.49987876e+00 1.51704788e+00 1.53696287e+00 1.56673479e+00 1.58952451e+00 1.60743570e+00 1.62391961e+00 1.64992583e+00 1.66706777e+00 1.69169319e+00 1.72157013e+00 1.74018717e+00 1.77157378e+00 1.79662657e+00 1.82560098e+00 1.84952712e+00 1.88127267e+00 1.91327190e+00 1.96554422e+00 2.00645065e+00 2.03477478e+00 2.05405641e+00 2.09648108e+00 2.12071919e+00 2.14747000e+00 2.18028545e+00 2.20420909e+00 2.23251176e+00 2.26163101e+00 2.27758241e+00 2.31576133e+00 2.34424329e+00 2.37192631e+00 2.41628480e+00 2.45820379e+00 2.46980238e+00 2.51300955e+00 2.55076909e+00 2.58733582e+00 2.61663866e+00 2.65977812e+00 2.69001555e+00 2.73198843e+00 2.77356005e+00 2.81344771e+00 2.86706233e+00 2.91253495e+00 2.95184040e+00 2.98069239e+00 3.06804848e+00 3.10493279e+00 3.14546657e+00 3.18497872e+00 3.23771715e+00 3.29418731e+00 3.34543157e+00 3.40784979e+00 3.45379353e+00 3.50096989e+00 3.52164602e+00 3.55087566e+00 3.63762069e+00 3.68423271e+00 3.79757261e+00 3.87823105e+00 3.93231511e+00 4.00744772e+00 4.06466818e+00 4.10254478e+00 4.19339943e+00 4.24379063e+00 4.28757000e+00 4.35218525e+00 4.42349720e+00 4.50306225e+00 4.51680422e+00 4.56782866e+00 4.62915564e+00 4.66643858e+00 4.70753813e+00 4.77735376e+00 4.87180185e+00 4.99319744e+00 
            </HistogramBinning>
          </PDF>
        </CumulativePDF_cls0>
      </Variable>
      <Variable VarIndex="2">
        <CumulativePDF_cls0>
          <PDF Name="GaussTransform var2 cls0" MinNSmooth="0" MaxNSmooth="0" InterpolMethod="1" KDE_type="0" KDE_iter="1" KDE_border="1" KDE_finefactor="0.0000000000000000e+00">
            <Histogram Name="Cumulative_Var2_cls0_original" NBins="301" XMin="5.3012639284133911e-02" XMax="4.9991636276245117e+00" HasEquidistantBins="0">
              2.41164234e-03 5.40540554e-03 8.71101860e-03 1.20582124e-02 1.53846154e-02 1.87110193e-02 2.20374223e-02 2.53638253e-02 2.86902282e-02 3.20166312e-02 3.53430361e-02 3.86694372e-02 4.19958420e-02 4.53222468e-02 4.86486480e-02 5.19750528e-02 5.53014539e-02 5.86278588e-02 6.19542636e-02 6.52806684e-02 6.86070696e-02 7.19334707e-02 7.52598718e-02 7.85862803e-02 8.19126815e-02 8.52390826e-02 8.85654911e-02 9.18918923e-02 9.52182934e-02 9.85447019e-02 1.01871103e-01 1.05197504e-01 1.08523905e-01 1.11850314e-01 1.15176715e-01 1.18503116e-01 1.21829525e-01 1.25155926e-01 1.28482327e-01 1.31808728e-01 1.35135129e-01 1.38461545e-01 1.41787946e-01 1.45114347e-01 1.48440748e-01 1.51767150e-01 1.55093551e-01 1.58419952e-01 1.61746368e-01 1.65072769e-01 1.68399170e-01 1.71725571e-01 1.75051972e-01 1.78378373e-01 1.81704774e-01 1.85031191e-01 1.88357592e-01 1.91683993e-01 1.95010394e-01 1.98336795e-01 2.01663196e-01 2.04989612e-01 2.08316013e-01 2.11642414e-01 2.14968815e-01 2.18295217e-01 2.21621618e-01 2.24948019e-01 2.28274435e-01 2.31600836e-01 2.34927237e-01 2.38253638e-01 2.41580039e-01 2.44906440e-01 2.48232841e-01 2.51559258e-01 2.54885644e-01 2.58212060e-01 2.61538476e-01 2.64864862e-01 2.68191278e-01 2.71517664e-01 2.74844080e-01 2.78170466e-01 2.81496882e-01 2.84823298e-01 2.88149685e-01 2.91476101e-01 2.94802487e-01 2.98128903e-01 3.01455289e-01 3.04781705e-01 3.08108121e-01 3.11434507e-01 3.14760923e-01 3.18087310e-01 3.21413726e-01 3.24740112e-01 3.28066528e-01 3.31392944e-01 3.34719330e-01 3.38045746e-01 3.41372132e-01 3.44698548e-01 3.48024935e-01 3.51351351e-01 3.54677767e-01 3.58004153e-01 3.61330569e-01 3.64656955e-01 3.67983371e-01 3.71309757e-01 3.74636173e-01 3.77962589e-01 3.81288975e-01 3.84615391e-01 3.87941778e-01 3.91268194e-01 3.94594580e-01 3.97920996e-01 4.01247412e-01 4.04573798e-01 4.07900214e-01 4.11226600e-01 4.14553016e-01 4.17879432e-01 4.21205819e-01 4.24532235e-01 4.27858621e-01 4.31185037e-01 4.34511423e-01 4.37837839e-01 4.41164255e-01 4.44490641e-01 4.47817057e-01 4.51143444e-01 4.54469860e-01 4.57796246e-01 4.61122662e-01 4.64449078e-01 4.67775464e-01 4.71101880e-01 4.74428266e-01 4.77754682e-01 4.81081069e-01 4.84407485e-01 4.87733901e-01 4.91060287e-01 4.94386703e-01 4.97713089e-01 5.01039505e-01 5.04365921e-01 5.07692337e-01 5.11018693e-01 5.14345109e-01 5.17671525e-01 5.20997941e-01 5.24324298e-01 5.27650714e-01 5.30977130e-01 5.34303546e-01 5.37629962e-01 5.40956318e-01 5.44282734e-01 5.47609150e-01 5.50935566e-01 5.54261982e-01 5.57588339e-01 5.60914755e-01 5.64241171e-01 5.67567587e-01 5.70893943e-01 5.74220359e-01 5.77546775e-01 5.80873191e-01 5.84199607e-01 5.87525964e-01 5.90852380e-01 5.94178796e-01 5.97505212e-01 6.00831628e-01 6.04157984e-01 6.07484400e-01 6.10810816e-01 6.14137232e-01 6.17463589e-01 6.20790005e-01 6.24116421e-01 6.27442837e-01 6.30769253e-01 6.34095609e-01 6.37422025e-01 6.40748441e-01 6.44074857e-01 6.47401273e-01 6.50727630e-01 6.54054046e-01 6.57380462e-01 6.60706878e-01 6.64033294e-01 6.67359650e-01 6.70686066e-01 6.74012482e-01 6.77338898e-01 6.80665255e-01 6.83991671e-01 6.87318087e-01 6.90644503e-01 6.93970919e-01 6.97297275e-01 7.00623691e-01 7.03950107e-01 7.07276523e-01 7.10602939e-01 7.13929296e-01 7.17255712e-01 7.20582128e-01 7.23908544e-01 7.27234900e-01 7.30561316e-01 7.33887732e-01 7.37214148e-01 7.40540564e-01 7.43866920e-01 7.47193336e-01 7.50519753e-01 7.53846169e-01 7.57172585e-01 7.60498941e-01 7.63825357e-01 7.67151773e-01 7.70478189e-01 7.73804545e-01 7.77130961e-01 7.80457377e-01 7.83783793e-01 7.87110209e-01 7.90436566e-01 7.93762982e-01 7.97089398e-01 8.00415814e-01 8.03742230e-01 8.07068586e-01 8.10395002e-01 8.13721418e-01 8.17047834e-01 8.20374191e-01 8.23700607e-01 8.27027023e-01 8.30353439e-01 8.33679855e-01 8.37006211e-01 8.40332627e-01 8.43659043e-01 8.46985459e-01 8.50311875e-01 8.53638232e-01 8.56964648e-01 8.60291064e-01 8.63617480e-01 8.66943896e-01 8.70270252e-01 8.73596668e-01 8.76923084e-01 8.80249500e-01 8.83575857e-01 8.86902273e-01 8.90228689e-01 8.93555105e-01 8.96881521e-01 9.00207877e-01 9.03534293e-01 9.06860709e-01 9.10187125e-01 9.13513541e-01 9.16839898e-01 9.20166314e-01 9.23492730e-01 9.26819146e-01 9.30145502e-01 9.33471918e-01 9.36798334e-01 9.40124750e-01 9.43451166e-01 9.46777523e-01 9.50103939e-01 9.53430355e-01 9.56756771e-01 9.60083187e-01 9.63409543e-01 9.66735959e-01 9.70062375e-01 9.73388791e-01 9.76715147e-01 9.80041564e-01 9.83367980e-01 9.86694396e-01 9.90020812e-01 9.93347168e-01 9.96673584e-01 1.00000000e+00 
            </Histogram>
            <HistogramBinning NBins="301">
              5.30126393e-02 5.31126410e-02 2.94612885e-01 5.12019932e-01 8.72619152e-01 1.18062830e+00 1.40909493e+00 1.53497267e+00 1.62876344e+00 1.72629404e+00 1.78175008e+00 1.88028848e+00 1.93521810e+00 2.01137757e+00 2.08713603e+00 2.13496184e+00 2.18295693e+00 2.20781469e+00 2.24555326e+00 2.28806305e+00 2.32154989e+00 2.34810829e+00 2.37918019e+00 2.40242481e+00 2.42986131e+00 2.46408391e+00 2.50561261e+00 2.53383303e+00 2.56124139e+00 2.58618641e+00 2.61053061e+00 2.64621949e+00 2.67520618e+00 2.71063685e+00 2.72311258e+00 2.74214363e+00 2.76002860e+00 2.78236413e+00 2.81591296e+00 2.87369943e+00 2.90221739e+00 2.91803193e+00 2.93947816e+00 2.95642018e+00 2.97551012e+00 2.99092889e+00 3.02106833e+00 3.03094196e+00 3.06872344e+00 3.08435035e+00 3.10436702e+00 3.12525129e+00 3.14070702e+00 3.15304112e+00 3.16433144e+00 3.19057512e+00 3.20781851e+00 3.22421384e+00 3.24239182e+00 3.25845003e+00 3.27001238e+00 3.28916883e+00 3.30451703e+00 3.31502819e+00 3.32571912e+00 3.34273577e+00 3.35957551e+00 3.37112021e+00 3.38722396e+00 3.39644432e+00 3.41042590e+00 3.42480159e+00 3.43912816e+00 3.44679952e+00 3.45582294e+00 3.46910596e+00 3.47848845e+00 3.48867583e+00 3.50253320e+00 3.51242018e+00 3.52180767e+00 3.53276515e+00 3.54261518e+00 3.55768156e+00 3.57080102e+00 3.57899833e+00 3.59081244e+00 3.60269713e+00 3.61290359e+00 3.62097120e+00 3.63131332e+00 3.64304471e+00 3.65507913e+00 3.66133761e+00 3.66649103e+00 3.67461896e+00 3.68188143e+00 3.69430256e+00 3.70578575e+00 3.71352482e+00 3.72321343e+00 3.73621297e+00 3.74662447e+00 3.75924778e+00 3.76881194e+00 3.77490997e+00 3.78540826e+00 3.79295993e+00 3.80473137e+00 3.81957793e+00 3.82948303e+00 3.84053612e+00 3.85287333e+00 3.86697817e+00 3.87864375e+00 3.88465714e+00 3.89211631e+00 3.90154409e+00 3.91402888e+00 3.92144012e+00 3.92420697e+00 3.93628144e+00 3.94930840e+00 3.95606804e+00 3.96246576e+00 3.97020841e+00 3.98295093e+00 3.99259567e+00 3.99709558e+00 4.00523520e+00 4.01477432e+00 4.02332115e+00 4.03368711e+00 4.04319525e+00 4.05319834e+00 4.06410599e+00 4.07206535e+00 4.07633448e+00 4.08186483e+00 4.08629799e+00 4.09381866e+00 4.10024738e+00 4.10738468e+00 4.11817741e+00 4.12708473e+00 4.13563824e+00 4.14459944e+00 4.15204906e+00 4.16043854e+00 4.16283989e+00 4.16846848e+00 4.17422199e+00 4.18666649e+00 4.19396448e+00 4.19892931e+00 4.20574093e+00 4.21516466e+00 4.21978569e+00 4.23155785e+00 4.23972845e+00 4.24621010e+00 4.25397444e+00 4.26180124e+00 4.27114058e+00 4.27655649e+00 4.28654861e+00 4.29592657e+00 4.30359125e+00 4.31181955e+00 4.31631565e+00 4.32140779e+00 4.32601452e+00 4.33391047e+00 4.33992195e+00 4.34708452e+00 4.35427618e+00 4.35989904e+00 4.36520624e+00 4.37091112e+00 4.37760925e+00 4.38501883e+00 4.38760138e+00 4.39533424e+00 4.40352774e+00 4.40756416e+00 4.41226816e+00 4.42140102e+00 4.42787552e+00 4.43344927e+00 4.43948126e+00 4.44241762e+00 4.44947004e+00 4.45714903e+00 4.46484423e+00 4.46944761e+00 4.47473669e+00 4.47921228e+00 4.48811293e+00 4.49393368e+00 4.50036716e+00 4.50641108e+00 4.51509476e+00 4.51938915e+00 4.52112341e+00 4.52627373e+00 4.53176069e+00 4.53481340e+00 4.54074812e+00 4.54747963e+00 4.55350637e+00 4.56183100e+00 4.56828880e+00 4.57514429e+00 4.57950687e+00 4.58426809e+00 4.58983421e+00 4.60013199e+00 4.60773516e+00 4.61186504e+00 4.61790037e+00 4.62383747e+00 4.63057089e+00 4.64045095e+00 4.64554977e+00 4.65022802e+00 4.65374374e+00 4.65748119e+00 4.66102505e+00 4.66567993e+00 4.67041922e+00 4.67481661e+00 4.68079472e+00 4.68408298e+00 4.69336224e+00 4.69670343e+00 4.70058203e+00 4.70468950e+00 4.70851469e+00 4.71300983e+00 4.71966696e+00 4.72232819e+00 4.72897482e+00 4.73377943e+00 4.73890972e+00 4.74432373e+00 4.74959469e+00 4.75472689e+00 4.75857258e+00 4.76316452e+00 4.76877403e+00 4.77317953e+00 4.77751923e+00 4.78044844e+00 4.78759861e+00 4.79192829e+00 4.79445839e+00 4.79870939e+00 4.80239391e+00 4.80536318e+00 4.80818129e+00 4.81134605e+00 4.81640339e+00 4.82565308e+00 4.82975912e+00 4.83467960e+00 4.83820391e+00 4.84373140e+00 4.84684181e+00 4.85049820e+00 4.85317183e+00 4.85661602e+00 4.86160612e+00 4.86530924e+00 4.86855555e+00 4.87313414e+00 4.87723207e+00 4.88460445e+00 4.88865995e+00 4.89483452e+00 4.89937878e+00 4.90658998e+00 4.91103077e+00 4.91399384e+00 4.91853428e+00 4.92387962e+00 4.92774343e+00 4.93202496e+00 4.93796921e+00 4.94176579e+00 4.94435358e+00 4.95001268e+00 4.95352793e+00 4.95848227e+00 4.96435404e+00 4.97024298e+00 4.97256660e+00 4.97608709e+00 4.97912884e+00 4.98487759e+00 4.99118948e+00 4.99547672e+00 4.99916363e+00 
            </HistogramBinning>
          </PDF>
        </CumulativePDF_cls0>
      </Variable>
      <Variable VarIndex="3">
        <CumulativePDF_cls0>
          <PDF Name="GaussTransform var3 cls0" MinNSmooth="0" MaxNSmooth="0" InterpolMethod="1" KDE_type="0" KDE_iter="1" KDE_border="1" KDE_finefactor="0.0000000000000000e+00">
            <Histogram Name="Cumulative_Var3_cls0_original" NBins="301" XMin="-9.5307326316833496e-01" XMax="9.9615268707275391e+00" HasEquidistantBins="0">
              2.41164234e-03 5.40540554e-03 8.71101860e-03 1.20582124e-02 1.53846154e-02 1.87110193e-02 2.20374223e-02 2.53638253e-02 2.86902282e-02 3.20166312e-02 3.53430361e-02 3.86694372e-02 4.19958420e-02 4.53222468e-02 4.86486480e-02 5.19750528e-02 5.53014539e-02 5.86278588e-02 6.19542636e-02 6.52806684e-02 6.86070696e-02 7.19334707e-02 7.52598718e-02 7.85862803e-02 8.19126815e-02 8.52390826e-02 8.85654911e-02 9.18918923e-02 9.52182934e-02 9.85447019e-02 1.01871103e-01 1.05197504e-01 1.08523905e-01 1.11850314e-01 1.15176715e-01 1.18503116e-01 1.21829525e-01 1.25155926e-01 1.28482327e-01 1.31808728e-01 1.35135129e-01 1.38461545e-01 1.41787946e-01 1.45114347e-01 1.48440748e-01 1.51767150e-01 1.55093551e-01 1.58419952e-01 1.61746368e-01 1.65072769e-01 1.68399170e-01 1.71725571e-01 1.75051972e-01 1.78378373e-01 1.81704774e-01 1.85031191e-01 1.88357592e-01 1.91683993e-01 1.95010394e-01 1.98336795e-01 2.01663196e-01 2.04989612e-01 2.08316013e-01 2.11642414e-01 2.14968815e-01 2.18295217e-01 2.21621618e-01 2.24948019e-01 2.28274435e-01 2.31600836e-01 2.34927237e-01 2.38253638e-01 2.41580039e-01 2.44906440e-01 2.48232841e-01 2.51559258e-01 2.54885644e-01 2.58212060e-01 2.61538476e-01 2.64864862e-01 2.68191278e-01 2.71517664e-01 2.74844080e-01 2.78170466e-01 2.81496882e-01 2.84823298e-01 2.88149685e-01 2.91476101e-01 2.94802487e-01 2.98128903e-01 3.01455289e-01 3.04781705e-01 3.08108121e-01 3.11434507e-01 3.14760923e-01 3.18087310e-01 3.21413726e-01 3.24740112e-01 3.28066528e-01 3.31392944e-01 3.34719330e-01 3.38045746e-01 3.41372132e-01 3.44698548e-01 3.48024935e-01 3.51351351e-01 3.54677767e-01 3.58004153e-01 3.61330569e-01 3.64656955e-01 3.67983371e-01 3.71309757e-01 3.74636173e-01 3.77962589e-01 3.81288975e-01 3.84615391e-01 3.87941778e-01 3.91268194e-01 3.94594580e-01 3.97920996e-01 4.01247412e-01 4.04573798e-01 4.07900214e-01 4.11226600e-01 4.14553016e-01 4.17879432e-01 4.21205819e-01 4.24532235e-01 4.27858621e-01 4.31185037e-01 4.34511423e-01 4.37837839e-01 4.41164255e-01 4.44490641e-01 4.47817057e-01 4.51143444e-01 4.54469860e-01 4.57796246e-01 4.61122662e-01 4.64449078e-01 4.67775464e-01 4.71101880e-01 4.74428266e-01 4.77754682e-01 4.81081069e-01 4.84407485e-01 4.87733901e-01 4.91060287e-01 4.94386703e-01 4.97713089e-01 5.01039505e-01 5.04365921e-01 5.07692337e-01 5.11018693e-01 5.14345109e-01 5.17671525e-01 5.20997941e-01 5.24324298e-01 5.27650714e-01 5.30977130e-01 5.34303546e-01 5.37629962e-01 5.40956318e-01 5.44282734e-01 5.47609150e-01 5.50935566e-01 5.54261982e-01 5.57588339e-01 5.60914755e-01 5.64241171e-01 5.67567587e-01 5.70893943e-01 5.74220359e-01 5.77546775e-01 5.80873191e-01 5.84199607e-01 5.87525964e-01 5.90852380e-01 5.94178796e-01 5.97505212e-01 6.00831628e-01 6.04157984e-01 6.07484400e-01 6.10810816e-01 6.14137232e-01 6.17463589e-01 6.20790005e-01 6.24116421e-01 6.27442837e-01 6.30769253e-01 6.34095609e-01 6.37422025e-01 6.40748441e-01 6.44074857e-01 6.47401273e-01 6.50727630e-01 6.54054046e-01 6.57380462e-01 6.60706878e-01 6.64033294e-01 6.67359650e-01 6.70686066e-01 6.74012482e-01 6.77338898e-01 6.80665255e-01 6.83991671e-01 6.87318087e-01 6.90644503e-01 6.93970919e-01 6.97297275e-01 7.00623691e-01 7.03950107e-01 7.07276523e-01 7.10602939e-01 7.13929296e-01 7.17255712e-01 7.20582128e-01 7.23908544e-01 7.27234900e-01 7.30561316e-01 7.33887732e-01 7.37214148e-01 7.40540564e-01 7.43866920e-01 7.47193336e-01 7.50519753e-01 7.53846169e-01 7.57172585e-01 7.60498941e-01 7.63825357e-01 7.67151773e-01 7.70478189e-01 7.73804545e-01 7.77130961e-01 7.80457377e-01 7.83783793e-01 7.87110209e-01 7.90436566e-01 7.93762982e-01 7.97089398e-01 8.00415814e-01 8.03742230e-01 8.07068586e-01 8.10395002e-01 8.13721418e-01 8.17047834e-01 8.20374191e-01 8.23700607e-01 8.27027023e-01 8.30353439e-01 8.33679855e-01 8.37006211e-01 8.40332627e-01 8.43659043e-01 8.46985459e-01 8.50311875e-01 8.53638232e-01 8.56964648e-01 8.60291064e-01 8.63617480e-01 8.66943896e-01 8.70270252e-01 8.73596668e-01 8.76923084e-01 8.80249500e-01 8.83575857e-01 8.86902273e-01 8.90228689e-01 8.93555105e-01 8.96881521e-01 9.00207877e-01 9.03534293e-01 9.06860709e-01 9.10187125e-01 9.13513541e-01 9.16839898e-01 9.20166314e-01 9.23492730e-01 9.26819146e-01 9.30145502e-01 9.33471918e-01 9.36798334e-01 9.40124750e-01 9.43451166e-01 9.46777523e-01 9.50103939e-01 9.53430355e-01 9.56756771e-01 9.60083187e-01 9.63409543e-01 9.66735959e-01 9.70062375e-01 9.73388791e-01 9.76715147e-01 9.80041564e-01 9.83367980e-01 9.86694396e-01 9.90020812e-01 9.93347168e-01 9.96673584e-01 1.00000000e+00 
            </Histogram>
            <HistogramBinning NBins="301">
              -9.53073263e-01 -9.52973247e-01 -4.64759827e-01 -3.73785853e-01 -2.78885126e-01 -2.18450785e-01 -1.95692182e-01 -1.70848817e-01 -1.59462214e-01 -1.47657394e-01 -1.40041471e-01 -1.19501054e-01 -1.03642941e-01 -9.42111015e-02 -8.23292732e-02 -7.41078854e-02 -6.02450371e-02 -4.62136269e-02 -3.39351296e-02 -1.28976107e-02 -2.36940384e-03 5.05852699e-03 1.05741024e-02 1.86481476e-02 2.91061401e-02 3.27464342e-02 3.81584167e-02 4.23754454e-02 4.55143452e-02 5.26518822e-02 5.76848984e-02 6.06279373e-02 6.87931180e-02 7.33168125e-02 7.79863596e-02 8.39056969e-02 9.02479887e-02 9.68577862e-02 1.02429867e-01 1.05024338e-01 1.10116243e-01 1.12957478e-01 1.15136385e-01 1.19659424e-01 1.23728037e-01 1.26603603e-01 1.32339895e-01 1.35495067e-01 1.41341686e-01 1.45481944e-01 1.50914192e-01 1.55333519e-01 1.59292877e-01 1.62002087e-01 1.64206266e-01 1.66696548e-01 1.71601295e-01 1.74769878e-01 1.81075811e-01 1.86220050e-01 1.91815853e-01 1.96080804e-01 2.01422691e-01 2.07784832e-01 2.13844538e-01 2.20049143e-01 2.22210661e-01 2.24810600e-01 2.31386423e-01 2.34760880e-01 2.39511490e-01 2.44308352e-01 2.49097869e-01 2.53292769e-01 2.58292198e-01 2.64441490e-01 2.69415379e-01 2.74396479e-01 2.76657224e-01 2.81779051e-01 2.88227797e-01 2.92945385e-01 2.99313188e-01 3.06315899e-01 3.13559294e-01 3.17881823e-01 3.21567297e-01 3.30764651e-01 3.36096048e-01 3.44220698e-01 3.48343492e-01 3.53359222e-01 3.57926488e-01 3.66366267e-01 3.70510459e-01 3.74945045e-01 3.84438396e-01 3.94163132e-01 4.03051615e-01 4.09521580e-01 4.12839472e-01 4.16729987e-01 4.23879623e-01 4.31613207e-01 4.39139724e-01 4.46005106e-01 4.58975434e-01 4.68426466e-01 4.74785000e-01 4.86354828e-01 5.02787352e-01 5.08723736e-01 5.19917250e-01 5.29990792e-01 5.37387550e-01 5.45966625e-01 5.54708481e-01 5.66080034e-01 5.79736471e-01 5.86491525e-01 5.95515609e-01 6.06693089e-01 6.18451297e-01 6.28710210e-01 6.35085225e-01 6.42437696e-01 6.55026674e-01 6.63237691e-01 6.72383428e-01 6.78041935e-01 6.86965227e-01 6.98798776e-01 7.12233365e-01 7.26897597e-01 7.42442608e-01 7.56425321e-01 7.71405637e-01 7.81508625e-01 7.93113351e-01 8.07108760e-01 8.26682329e-01 8.41657043e-01 8.61727953e-01 8.74947906e-01 8.89201641e-01 9.01184320e-01 9.10291612e-01 9.20656443e-01 9.32434857e-01 9.51061249e-01 9.67557430e-01 9.72958505e-01 9.82862413e-01 9.98660505e-01 1.01087761e+00 1.03190184e+00 1.04591322e+00 1.06632781e+00 1.08717561e+00 1.09697270e+00 1.11473012e+00 1.13489556e+00 1.14997339e+00 1.17100251e+00 1.19232070e+00 1.21107578e+00 1.22292256e+00 1.24560452e+00 1.25884581e+00 1.27791488e+00 1.29444337e+00 1.30941701e+00 1.33381343e+00 1.35142684e+00 1.36743176e+00 1.38415539e+00 1.40273678e+00 1.43759465e+00 1.46075928e+00 1.49579144e+00 1.51875472e+00 1.55381966e+00 1.57394803e+00 1.58903503e+00 1.60520613e+00 1.62523353e+00 1.64400637e+00 1.65763938e+00 1.68686152e+00 1.71187198e+00 1.73558939e+00 1.76768410e+00 1.78879952e+00 1.81945384e+00 1.84486508e+00 1.87144995e+00 1.89022291e+00 1.91742647e+00 1.95683670e+00 1.98564363e+00 2.01175046e+00 2.04833937e+00 2.07236862e+00 2.11209846e+00 2.13653064e+00 2.19041729e+00 2.22584057e+00 2.25706291e+00 2.29008460e+00 2.33370113e+00 2.37448311e+00 2.39766788e+00 2.44486594e+00 2.49552441e+00 2.53602505e+00 2.62913275e+00 2.66199422e+00 2.70282006e+00 2.74540496e+00 2.80679297e+00 2.86461496e+00 2.89208055e+00 2.93929291e+00 2.97946262e+00 3.03226089e+00 3.08367801e+00 3.15016603e+00 3.20014381e+00 3.22297215e+00 3.24905968e+00 3.27764869e+00 3.31343794e+00 3.35989308e+00 3.43748140e+00 3.48659277e+00 3.55921960e+00 3.61982036e+00 3.68181944e+00 3.74379182e+00 3.79086232e+00 3.85985422e+00 3.91335726e+00 3.98842645e+00 4.04811764e+00 4.08841467e+00 4.14114046e+00 4.23569775e+00 4.29730654e+00 4.33246231e+00 4.37727976e+00 4.46888971e+00 4.52395344e+00 4.63202906e+00 4.66941309e+00 4.73286963e+00 4.81559134e+00 4.90248537e+00 4.97213697e+00 5.04151249e+00 5.11910057e+00 5.20028830e+00 5.28947401e+00 5.36203289e+00 5.42116070e+00 5.51519871e+00 5.62627840e+00 5.67481613e+00 5.73802948e+00 5.80920029e+00 5.88662243e+00 5.95679569e+00 6.04626274e+00 6.11168528e+00 6.17280197e+00 6.25496721e+00 6.37872982e+00 6.46403170e+00 6.60745192e+00 6.68429518e+00 6.79682493e+00 6.87584305e+00 6.97730350e+00 7.09132051e+00 7.17265511e+00 7.31247997e+00 7.47248840e+00 7.60052586e+00 7.71363115e+00 7.83798027e+00 7.92972803e+00 8.07805061e+00 8.22964001e+00 8.36987782e+00 8.46213531e+00 8.60987663e+00 8.69498062e+00 9.02756500e+00 9.14644623e+00 9.45140266e+00 9.62247276e+00 9.83105183e+00 9.96152687e+00 
            </HistogramBinning>
          </PDF>
        </CumulativePDF_cls0>
      </Variable>
      <Variable VarIndex="4">
        <CumulativePDF_cls0>
          <PDF Name="GaussTransform var4 cls0" MinNSmooth="0" MaxNSmooth="0" InterpolMethod="1" KDE_type="0" KDE_iter="1" KDE_border="1" KDE_finefactor="0.0000000000000000e+00">
            <Histogram Name="Cumulative_Var4_cls0_original" NBins="301" XMin="1.6049730777740479e-01" XMax="4.8219959259033203e+01" HasEquidistantBins="0">
              2.41164234e-03 5.40540554e-03 8.71101860e-03 1.20582124e-02 1.53846154e-02 1.87110193e-02 2.20374223e-02 2.53638253e-02 2.86902282e-02 3.20166312e-02 3.53430361e-02 3.86694372e-02 4.19958420e-02 4.53222468e-02 4.86486480e-02 5.19750528e-02 5.53014539e-02 5.86278588e-02 6.19542636e-02 6.52806684e-02 6.86070696e-02 7.19334707e-02 7.52598718e-02 7.85862803e-02 8.19126815e-02 8.52390826e-02 8.85654911e-02 9.18918923e-02 9.52182934e-02 9.85447019e-02 1.01871103e-01 1.05197504e-01 1.08523905e-01 1.11850314e-01 1.15176715e-01 1.18503116e-01 1.21829525e-01 1.25155926e-01 1.28482327e-01 1.31808728e-01 1.35135129e-01 1.38461545e-01 1.41787946e-01 1.45114347e-01 1.48440748e-01 1.51767150e-01 1.55093551e-01 1.58419952e-01 1.61746368e-01 1.65072769e-01 1.68399170e-01 1.71725571e-01 1.75051972e-01 1.78378373e-01 1.81704774e-01 1.85031191e-01 1.88357592e-01 1.91683993e-01 1.95010394e-01 1.98336795e-01 2.01663196e-01 2.04989612e-01 2.08316013e-01 2.11642414e-01 2.14968815e-01 2.18295217e-01 2.21621618e-01 2.24948019e-01 2.28274435e-01 2.31600836e-01 2.34927237e-01 2.38253638e-01 2.41580039e-01 2.44906440e-01 2.48232841e-01 2.51559258e-01 2.54885644e-01 2.58212060e-01 2.61538476e-01 2.64864862e-01 2.68191278e-01 2.71517664e-01 2.74844080e-01 2.78170466e-01 2.81496882e-01 2.84823298e-01 2.88149685e-01 2.91476101e-01 2.94802487e-01 2.98128903e-01 3.01455289e-01 3.04781705e-01 3.08108121e-01 3.11434507e-01 3.14760923e-01 3.18087310e-01 3.21413726e-01 3.24740112e-01 3.28066528e-01 3.31392944e-01 3.34719330e-01 3.38045746e-01 3.41372132e-01 3.44698548e-01 3.48024935e-01 3.51351351e-01 3.54677767e-01 3.58004153e-01 3.61330569e-01 3.64656955e-01 3.67983371e-01 3.71309757e-01 3.74636173e-01 3.77962589e-01 3.81288975e-01 3.84615391e-01 3.87941778e-01 3.91268194e-01 3.94594580e-01 3.97920996e-01 4.01247412e-01 4.04573798e-01 4.07900214e-01 4.11226600e-01 4.14553016e-01 4.17879432e-01 4.21205819e-01 4.24532235e-01 4.27858621e-01 4.31185037e-01 4.34511423e-01 4.37837839e-01 4.41164255e-01 4.44490641e-01 4.47817057e-01 4.51143444e-01 4.54469860e-01 4.57796246e-01 4.61122662e-01 4.64449078e-01 4.67775464e-01 4.71101880e-01 4.74428266e-01 4.77754682e-01 4.81081069e-01 4.84407485e-01 4.87733901e-01 4.91060287e-01 4.94386703e-01 4.97713089e-01 5.01039505e-01 5.04365921e-01 5.07692337e-01 5.11018693e-01 5.14345109e-01 5.17671525e-01 5.20997941e-01 5.24324298e-01 5.27650714e-01 5.30977130e-01 5.34303546e-01 5.37629962e-01 5.40956318e-01 5.44282734e-01 5.47609150e-01 5.50935566e-01 5.54261982e-01 5.57588339e-01 5.60914755e-01 5.64241171e-01 5.67567587e-01 5.70893943e-01 5.74220359e-01 5.77546775e-01 5.80873191e-01 5.84199607e-01 5.87525964e-01 5.90852380e-01 5.94178796e-01 5.97505212e-01 6.00831628e-01 6.04157984e-01 6.07484400e-01 6.10810816e-01 6.14137232e-01 6.17463589e-01 6.20790005e-01 6.24116421e-01 6.27442837e-01 6.30769253e-01 6.34095609e-01 6.37422025e-01 6.40748441e-01 6.44074857e-01 6.47401273e-01 6.50727630e-01 6.54054046e-01 6.57380462e-01 6.60706878e-01 6.64033294e-01 6.67359650e-01 6.70686066e-01 6.74012482e-01 6.77338898e-01 6.80665255e-01 6.83991671e-01 6.87318087e-01 6.90644503e-01 6.93970919e-01 6.97297275e-01 7.00623691e-01 7.03950107e-01 7.07276523e-01 7.10602939e-01 7.13929296e-01 7.17255712e-01 7.20582128e-01 7.23908544e-01 7.27234900e-01 7.30561316e-01 7.33887732e-01 7.37214148e-01 7.40540564e-01 7.43866920e-01 7.47193336e-01 7.50519753e-01 7.53846169e-01 7.57172585e-01 7.60498941e-01 7.63825357e-01 7.67151773e-01 7.70478189e-01 7.73804545e-01 7.77130961e-01 7.80457377e-01 7.83783793e-01 7.87110209e-01 7.90436566e-01 7.93762982e-01 7.97089398e-01 8.00415814e-01 8.03742230e-01 8.07068586e-01 8.10395002e-01 8.13721418e-01 8.17047834e-01 8.20374191e-01 8.23700607e-01 8.27027023e-01 8.30353439e-01 8.33679855e-01 8.37006211e-01 8.40332627e-01 8.43659043e-01 8.46985459e-01 8.50311875e-01 8.53638232e-01 8.56964648e-01 8.60291064e-01 8.63617480e-01 8.66943896e-01 8.70270252e-01 8.73596668e-01 8.76923084e-01 8.80249500e-01 8.83575857e-01 8.86902273e-01 8.90228689e-01 8.93555105e-01 8.96881521e-01 9.00207877e-01 9.03534293e-01 9.06860709e-01 9.10187125e-01 9.13513541e-01 9.16839898e-01 9.20166314e-01 9.23492730e-01 9.26819146e-01 9.30145502e-01 9.33471918e-01 9.36798334e-01 9.40124750e-01 9.43451166e-01 9.46777523e-01 9.50103939e-01 9.53430355e-01 9.56756771e-01 9.60083187e-01 9.63409543e-01 9.66735959e-01 9.70062375e-01 9.73388791e-01 9.76715147e-01 9.80041564e-01 9.83367980e-01 9.86694396e-01 9.90020812e-01 9.93347168e-01 9.96673584e-01 1.00000000e+00 
            </Histogram>
            <HistogramBinning NBins="301">
              1.60497308e-01 1.60597309e-01 4.19607997e-01 6.42941535e-01 8.15568745e-01 1.07353008e+00 1.26383352e+00 1.55001688e+00 1.67367852e+00 1.84323406e+00 1.90760982e+00 2.01524425e+00 2.13879609e+00 2.26367712e+00 2.34131265e+00 2.39837265e+00 2.53072453e+00 2.57576513e+00 2.67873073e+00 2.74218607e+00 2.81202960e+00 2.87931156e+00 2.96063018e+00 3.00863361e+00 3.10907435e+00 3.18343616e+00 3.23806000e+00 3.31137252e+00 3.37534308e+00 3.42164063e+00 3.47103810e+00 3.55182862e+00 3.64595580e+00 3.73989701e+00 3.78796101e+00 3.82466698e+00 3.86468291e+00 3.93175960e+00 4.00778913e+00 4.05839729e+00 4.08715820e+00 4.13323355e+00 4.16751528e+00 4.23322296e+00 4.30593443e+00 4.35938358e+00 4.39966869e+00 4.45749903e+00 4.55322075e+00 4.61308146e+00 4.65116692e+00 4.69339371e+00 4.73514462e+00 4.76703119e+00 4.81292200e+00 4.87687445e+00 4.93869162e+00 4.99453974e+00 5.04417086e+00 5.11374187e+00 5.17039871e+00 5.22483492e+00 5.26811552e+00 5.33164644e+00 5.41179752e+00 5.48667192e+00 5.57950926e+00 5.61391544e+00 5.64864159e+00 5.67972088e+00 5.71698332e+00 5.80713511e+00 5.86359882e+00 5.90412331e+00 5.95872688e+00 6.00187206e+00 6.07400799e+00 6.12541962e+00 6.17702866e+00 6.21514511e+00 6.27326870e+00 6.31925821e+00 6.36461020e+00 6.40251350e+00 6.45071745e+00 6.49064445e+00 6.55542946e+00 6.62432718e+00 6.67777681e+00 6.75335693e+00 6.80711889e+00 6.85827351e+00 6.89276075e+00 6.93024731e+00 6.95274973e+00 7.00051069e+00 7.03614378e+00 7.09179544e+00 7.14464235e+00 7.18871403e+00 7.25854445e+00 7.32406902e+00 7.35550308e+00 7.40187311e+00 7.47532749e+00 7.55977154e+00 7.60452509e+00 7.66679287e+00 7.72931767e+00 7.78267813e+00 7.84221220e+00 7.88350296e+00 7.90814734e+00 7.98162508e+00 8.02230644e+00 8.06792355e+00 8.14073944e+00 8.18434811e+00 8.24504280e+00 8.28283310e+00 8.37210560e+00 8.40353107e+00 8.45959187e+00 8.49824810e+00 8.53621387e+00 8.60559464e+00 8.67498875e+00 8.73305416e+00 8.79265976e+00 8.86513233e+00 8.91623211e+00 8.94960022e+00 8.99079323e+00 9.03705502e+00 9.07607555e+00 9.12248993e+00 9.18591404e+00 9.22607803e+00 9.29985619e+00 9.36357117e+00 9.42174149e+00 9.46181297e+00 9.50693893e+00 9.57790661e+00 9.65439987e+00 9.73792934e+00 9.77598667e+00 9.81061745e+00 9.85391998e+00 9.92346382e+00 1.00133953e+01 1.00745926e+01 1.01866064e+01 1.02236481e+01 1.02968979e+01 1.03541279e+01 1.04139795e+01 1.04504490e+01 1.05189342e+01 1.06284714e+01 1.07141285e+01 1.07889585e+01 1.08427382e+01 1.09028254e+01 1.10286102e+01 1.11106291e+01 1.11503010e+01 1.12146387e+01 1.12649088e+01 1.13331404e+01 1.13792734e+01 1.14223595e+01 1.14856949e+01 1.15706778e+01 1.16593943e+01 1.17575464e+01 1.18488894e+01 1.18941813e+01 1.19502401e+01 1.19958735e+01 1.20600538e+01 1.21318369e+01 1.21893053e+01 1.22260580e+01 1.23122988e+01 1.23922224e+01 1.24526148e+01 1.25343866e+01 1.26429529e+01 1.26981144e+01 1.27768583e+01 1.28452406e+01 1.29564981e+01 1.30222864e+01 1.30890694e+01 1.31761875e+01 1.32175713e+01 1.33094950e+01 1.33973875e+01 1.34800854e+01 1.35954132e+01 1.36782770e+01 1.37898750e+01 1.39595671e+01 1.40794268e+01 1.42254133e+01 1.43329535e+01 1.44092693e+01 1.45420523e+01 1.45968428e+01 1.47851267e+01 1.48879566e+01 1.49995089e+01 1.50914488e+01 1.52197514e+01 1.52726545e+01 1.54065046e+01 1.55010109e+01 1.55710850e+01 1.56905804e+01 1.57662935e+01 1.58781891e+01 1.59434309e+01 1.60986652e+01 1.62259903e+01 1.63773327e+01 1.65085869e+01 1.66986103e+01 1.67763500e+01 1.69025192e+01 1.70040932e+01 1.71181202e+01 1.72558784e+01 1.73799362e+01 1.75276566e+01 1.76780128e+01 1.78140564e+01 1.80060482e+01 1.80935574e+01 1.82431297e+01 1.83798275e+01 1.84964447e+01 1.85612392e+01 1.87379475e+01 1.89003983e+01 1.90222950e+01 1.92412167e+01 1.93314171e+01 1.94578724e+01 1.96883678e+01 1.98858871e+01 2.01823483e+01 2.02906418e+01 2.04631271e+01 2.05740108e+01 2.07453136e+01 2.09114265e+01 2.10384560e+01 2.12169991e+01 2.13738441e+01 2.17169628e+01 2.18905525e+01 2.21118641e+01 2.24027901e+01 2.26978474e+01 2.30435753e+01 2.33844185e+01 2.35661907e+01 2.37572231e+01 2.41777840e+01 2.43198986e+01 2.47144890e+01 2.49722233e+01 2.58169365e+01 2.60953636e+01 2.66495266e+01 2.71184216e+01 2.74569340e+01 2.77783432e+01 2.82398701e+01 2.85587463e+01 2.90026150e+01 2.93687000e+01 2.99017010e+01 3.03165588e+01 3.06666965e+01 3.12330456e+01 3.16477299e+01 3.24371185e+01 3.26693649e+01 3.31109352e+01 3.39431534e+01 3.44118767e+01 3.55798035e+01 3.64698982e+01 3.71549263e+01 3.92362289e+01 4.01783829e+01 4.16554871e+01 4.44070816e+01 4.54752922e+01 4.82199593e+01 
            </HistogramBinning>
          </PDF>
        </CumulativePDF_cls0>
      </Variable>
      <Variable VarIndex="5">
        <CumulativePDF_cls0>
          <PDF Name="GaussTransform var5 cls0" MinNSmooth="0" MaxNSmooth="0" InterpolMethod="1" KDE_type="0" KDE_iter="1" KDE_border="1" KDE_finefactor="0.0000000000000000e+00">
            <Histogram Name="Cumulative_Var5_cls0_original" NBins="301" XMin="2.5486510992050171e-01" XMax="9.7770404815673828e+00" HasEquidistantBins="0">
              2.41164234e-03 5.40540554e-03 8.71101860e-03 1.20582124e-02 1.53846154e-02 1.87110193e-02 2.20374223e-02 2.53638253e-02 2.86902282e-02 3.20166312e-02 3.53430361e-02 3.86694372e-02 4.19958420e-02 4.53222468e-02 4.86486480e-02 5.19750528e-02 5.53014539e-02 5.86278588e-02 6.19542636e-02 6.52806684e-02 6.86070696e-02 7.19334707e-02 7.52598718e-02 7.85862803e-02 8.19126815e-02 8.52390826e-02 8.85654911e-02 9.18918923e-02 9.52182934e-02 9.85447019e-02 1.01871103e-01 1.05197504e-01 1.08523905e-01 1.11850314e-01 1.15176715e-01 1.18503116e-01 1.21829525e-01 1.25155926e-01 1.28482327e-01 1.31808728e-01 1.35135129e-01 1.38461545e-01 1.41787946e-01 1.45114347e-01 1.48440748e-01 1.51767150e-01 1.55093551e-01 1.58419952e-01 1.61746368e-01 1.65072769e-01 1.68399170e-01 1.71725571e-01 1.75051972e-01 1.78378373e-01 1.81704774e-01 1.85031191e-01 1.88357592e-01 1.91683993e-01 1.95010394e-01 1.98336795e-01 2.01663196e-01 2.04989612e-01 2.08316013e-01 2.11642414e-01 2.14968815e-01 2.18295217e-01 2.21621618e-01 2.24948019e-01 2.28274435e-01 2.31600836e-01 2.34927237e-01 2.38253638e-01 2.41580039e-01 2.44906440e-01 2.48232841e-01 2.51559258e-01 2.54885644e-01 2.58212060e-01 2.61538476e-01 2.64864862e-01 2.68191278e-01 2.71517664e-01 2.74844080e-01 2.78170466e-01 2.81496882e-01 2.84823298e-01 2.88149685e-01 2.91476101e-01 2.94802487e-01 2.98128903e-01 3.01455289e-01 3.04781705e-01 3.08108121e-01 3.11434507e-01 3.14760923e-01 3.18087310e-01 3.21413726e-01 3.24740112e-01 3.28066528e-01 3.31392944e-01 3.34719330e-01 3.38045746e-01 3.41372132e-01 3.44698548e-01 3.48024935e-01 3.51351351e-01 3.54677767e-01 3.58004153e-01 3.61330569e-01 3.64656955e-01 3.67983371e-01 3.71309757e-01 3.74636173e-01 3.77962589e-01 3.81288975e-01 3.84615391e-01 3.87941778e-01 3.91268194e-01 3.94594580e-01 3.97920996e-01 4.01247412e-01 4.04573798e-01 4.07900214e-01 4.11226600e-01 4.14553016e-01 4.17879432e-01 4.21205819e-01 4.24532235e-01 4.27858621e-01 4.31185037e-01 4.34511423e-01 4.37837839e-01 4.41164255e-01 4.44490641e-01 4.47817057e-01 4.51143444e-01 4.54469860e-01 4.57796246e-01 4.61122662e-01 4.64449078e-01 4.67775464e-01 4.71101880e-01 4.74428266e-01 4.77754682e-01 4.81081069e-01 4.84407485e-01 4.87733901e-01 4.91060287e-01 4.94386703e-01 4.97713089e-01 5.01039505e-01 5.04365921e-01 5.07692337e-01 5.11018693e-01 5.14345109e-01 5.17671525e-01 5.20997941e-01 5.24324298e-01 5.27650714e-01 5.30977130e-01 5.34303546e-01 5.37629962e-01 5.40956318e-01 5.44282734e-01 5.47609150e-01 5.50935566e-01 5.54261982e-01 5.57588339e-01 5.60914755e-01 5.64241171e-01 5.67567587e-01 5.70893943e-01 5.74220359e-01 5.77546775e-01 5.80873191e-01 5.84199607e-01 5.87525964e-01 5.90852380e-01 5.94178796e-01 5.97505212e-01 6.00831628e-01 6.04157984e-01 6.07484400e-01 6.10810816e-01 6.14137232e-01 6.17463589e-01 6.20790005e-01 6.24116421e-01 6.27442837e-01 6.30769253e-01 6.34095609e-01 6.37422025e-01 6.40748441e-01 6.44074857e-01 6.47401273e-01 6.50727630e-01 6.54054046e-01 6.57380462e-01 6.60706878e-01 6.64033294e-01 6.67359650e-01 6.70686066e-01 6.74012482e-01 6.77338898e-01 6.80665255e-01 6.83991671e-01 6.87318087e-01 6.90644503e-01 6.93970919e-01 6.97297275e-01 7.00623691e-01 7.03950107e-01 7.07276523e-01 7.10602939e-01 7.13929296e-01 7.17255712e-01 7.20582128e-01 7.23908544e-01 7.27234900e-01 7.30561316e-01 7.33887732e-01 7.37214148e-01 7.40540564e-01 7.43866920e-01 7.47193336e-01 7.50519753e-01 7.53846169e-01 7.57172585e-01 7.60498941e-01 7.63825357e-01 7.67151773e-01 7.70478189e-01 7.73804545e-01 7.77130961e-01 7.80457377e-01 7.83783793e-01 7.87110209e-01 7.90436566e-01 7.93762982e-01 7.97089398e-01 8.00415814e-01 8.03742230e-01 8.07068586e-01 8.10395002e-01 8.13721418e-01 8.17047834e-01 8.20374191e-01 8.23700607e-01 8.27027023e-01 8.30353439e-01 8.33679855e-01 8.37006211e-01 8.40332627e-01 8.43659043e-01 8.46985459e-01 8.50311875e-01 8.53638232e-01 8.56964648e-01 8.60291064e-01 8.63617480e-01 8.66943896e-01 8.70270252e-01 8.73596668e-01 8.76923084e-01 8.80249500e-01 8.83575857e-01 8.86902273e-01 8.90228689e-01 8.93555105e-01 8.96881521e-01 9.00207877e-01 9.03534293e-01 9.06860709e-01 9.10187125e-01 9.13513541e-01 9.16839898e-01 9.20166314e-01 9.23492730e-01 9.26819146e-01 9.30145502e-01 9.33471918e-01 9.36798334e-01 9.40124750e-01 9.43451166e-01 9.46777523e-01 9.50103939e-01 9.53430355e-01 9.56756771e-01 9.60083187e-01 9.63409543e-01 9.66735959e-01 9.70062375e-01 9.73388791e-01 9.76715147e-01 9.80041564e-01 9.83367980e-01 9.86694396e-01 9.90020812e-01 9.93347168e-01 9.96673584e-01 1.00000000e+00 
            </Histogram>
            <HistogramBinning NBins="301">
              2.54865110e-01 2.54965097e-01 7.11875379e-01 1.21612310e+00 1.59105361e+00 1.81621897e+00 1.95395494e+00 2.07194495e+00 2.15998292e+00 2.22726870e+00 2.32376313e+00 2.39989638e+00 2.47899246e+00 2.52991343e+00 2.58157206e+00 2.65285420e+00 2.72195911e+00 2.75713253e+00 2.82049012e+00 2.86449242e+00 2.90939093e+00 2.94434357e+00 2.96907139e+00 2.99537635e+00 3.02952957e+00 3.05741787e+00 3.09636855e+00 3.13037801e+00 3.16030312e+00 3.17499232e+00 3.19987631e+00 3.22929192e+00 3.25726771e+00 3.29616332e+00 3.30542040e+00 3.33110976e+00 3.34855986e+00 3.37379241e+00 3.39343905e+00 3.42889357e+00 3.45134425e+00 3.47150397e+00 3.48319149e+00 3.51640534e+00 3.53266692e+00 3.54870605e+00 3.56484222e+00 3.57953501e+00 3.59562445e+00 3.61601257e+00 3.63668084e+00 3.66354990e+00 3.69050121e+00 3.70360518e+00 3.72520781e+00 3.74599361e+00 3.75995445e+00 3.78983688e+00 3.80484915e+00 3.81731105e+00 3.83907604e+00 3.85201621e+00 3.87112379e+00 3.89148808e+00 3.90242529e+00 3.92345548e+00 3.94025159e+00 3.96367693e+00 3.97732186e+00 3.98864293e+00 4.00189686e+00 4.01599979e+00 4.03213692e+00 4.04164791e+00 4.05650520e+00 4.07816458e+00 4.09256792e+00 4.10776806e+00 4.12088585e+00 4.13215780e+00 4.14735556e+00 4.16310358e+00 4.16919708e+00 4.17677307e+00 4.18652582e+00 4.20692158e+00 4.22065115e+00 4.22906780e+00 4.24367523e+00 4.25531626e+00 4.27386951e+00 4.28887320e+00 4.30945635e+00 4.32208300e+00 4.33058214e+00 4.33974266e+00 4.35537863e+00 4.37003565e+00 4.37756205e+00 4.39033222e+00 4.40186024e+00 4.41726589e+00 4.43036795e+00 4.44375896e+00 4.45560980e+00 4.46535540e+00 4.47622108e+00 4.48926735e+00 4.49884272e+00 4.50651073e+00 4.51183462e+00 4.52718449e+00 4.53342628e+00 4.54073524e+00 4.54518557e+00 4.55359077e+00 4.56204987e+00 4.56858444e+00 4.58460760e+00 4.59431171e+00 4.61061525e+00 4.61744976e+00 4.62463856e+00 4.63404655e+00 4.63959551e+00 4.65231323e+00 4.66115952e+00 4.66775894e+00 4.68039799e+00 4.68721724e+00 4.69418669e+00 4.70365429e+00 4.70722008e+00 4.71566820e+00 4.72860909e+00 4.73482847e+00 4.74234438e+00 4.75288916e+00 4.76202059e+00 4.76942301e+00 4.77920532e+00 4.78524065e+00 4.79748344e+00 4.80731583e+00 4.81849384e+00 4.82426977e+00 4.83580542e+00 4.84269190e+00 4.85063648e+00 4.85845470e+00 4.86345243e+00 4.86870623e+00 4.87439823e+00 4.88179016e+00 4.88746977e+00 4.89236069e+00 4.90151834e+00 4.90484905e+00 4.91389036e+00 4.92292786e+00 4.92872334e+00 4.93844509e+00 4.94591808e+00 4.95074940e+00 4.96186686e+00 4.96829510e+00 4.97871685e+00 4.98802710e+00 4.99573708e+00 5.00065851e+00 5.00675201e+00 5.01262140e+00 5.02419090e+00 5.03361988e+00 5.03737593e+00 5.04694414e+00 5.05153275e+00 5.05671072e+00 5.06600189e+00 5.08059311e+00 5.08637047e+00 5.09672976e+00 5.10949516e+00 5.11894846e+00 5.13047028e+00 5.14594364e+00 5.15644407e+00 5.16746044e+00 5.17652035e+00 5.19028187e+00 5.20098209e+00 5.22247124e+00 5.24006510e+00 5.25679064e+00 5.26651812e+00 5.27886963e+00 5.29256153e+00 5.30455160e+00 5.31827450e+00 5.33235359e+00 5.34560204e+00 5.35833883e+00 5.38601828e+00 5.40028334e+00 5.42015505e+00 5.43301058e+00 5.44735718e+00 5.46539164e+00 5.47209120e+00 5.48764896e+00 5.50093269e+00 5.51401281e+00 5.53222942e+00 5.55006123e+00 5.56537676e+00 5.58840752e+00 5.60823870e+00 5.62853193e+00 5.65109730e+00 5.67192936e+00 5.68930435e+00 5.72115850e+00 5.73659372e+00 5.74840498e+00 5.77305460e+00 5.78264570e+00 5.80125237e+00 5.83079672e+00 5.84677982e+00 5.86212635e+00 5.89521217e+00 5.91645765e+00 5.94679165e+00 5.97322273e+00 5.99955750e+00 6.02367020e+00 6.06489468e+00 6.08976126e+00 6.11661148e+00 6.15276527e+00 6.17849445e+00 6.20631313e+00 6.23854733e+00 6.26818657e+00 6.31316757e+00 6.34962368e+00 6.38397884e+00 6.42430258e+00 6.46137190e+00 6.48332691e+00 6.51924229e+00 6.56142044e+00 6.58906460e+00 6.61668777e+00 6.65628147e+00 6.69353580e+00 6.73219728e+00 6.77397871e+00 6.82086945e+00 6.83941364e+00 6.86553955e+00 6.89189816e+00 6.91942930e+00 6.94438553e+00 6.97189999e+00 7.00715160e+00 7.04182529e+00 7.08792591e+00 7.15191555e+00 7.20163155e+00 7.25578690e+00 7.28530216e+00 7.34660721e+00 7.39121342e+00 7.45334053e+00 7.51414967e+00 7.53925514e+00 7.59568167e+00 7.67504120e+00 7.76018524e+00 7.84661484e+00 7.90173531e+00 7.96736240e+00 8.02342510e+00 8.07910919e+00 8.15178299e+00 8.18880749e+00 8.24054909e+00 8.30054188e+00 8.41495132e+00 8.47703552e+00 8.58271217e+00 8.64602184e+00 8.69746304e+00 8.77231598e+00 8.83971214e+00 8.96740150e+00 9.03597641e+00 9.11922073e+00 9.29931641e+00 9.44724083e+00 9.77704048e+00 
            </HistogramBinning>
          </PDF>
        </CumulativePDF_cls0>
      </Variable>
    </Transform>
  </Transformations>
  <MVAPdfs/>
  <Weights>
    <Layout NumberLayers="2">
      <Layer Connection="FULL" Nodes="3" ActivationFunction="T" OutputMode="1"/>
      <Layer Connection="FULL" Nodes="6" ActivationFunction="L" OutputMode="1"/>
    </Layout>
    <Synapses InputSize="7" OutputSize="6" NumberSynapses="39">
      -1.8449300681803379e-01 -1.4902845466314185e+00 -3.6571136093553658e-01 3.6913471124236252e-01 1.3891919596132266e-01 2.0871094630290227e-01 -2.2309256368116098e-01 -3.0720773717911959e-01 5.3425118712595393e-02 3.6023211135208771e-01 2.0460391361631802e+00 -2.2352859583314175e-01 -5.1576833158822832e-02 1.3643144476684599e+00 -3.1861266488683626e-01 -9.9407798331627578e-03 -1.9016200858250415e-01 -1.0479001145664388e+00 -5.9433341434390892e+00 -1.6212325995951249e+00 7.6258760959135896e-01 -3.9484088862624707e+00 -7.3842954884447820e-01 -3.3433058711929808e+00 -3.2099793346924081e+00 -1.6255633883783766e+01 -4.0817353166704144e+00 1.7943825205343071e+00 -1.0440190329460119e+00 -9.8482235888822239e-02 2.8384015534125537e+00 6.7337455404811761e+00 -1.1425013824020245e+00 -1.0234476161200656e+00 -1.1030789512620334e+00 -4.9180782572755566e-01 7.9631341166958663e-02 -6.1728494306626001e+00 -1.5948867646819143e+00 
    </Synapses>
  </Weights>
</MethodSetup>
